genomestart 1
node 1 1
node 2 1
node 3 2
gene 1 1 3 0.3515307127976143 1
gene 2 2 3 -0.12373002938538724 1
genomeend

genomestart 2
node 1 1
node 2 1
node 3 2
gene 1 1 3 0.6834708531390592 1
gene 2 2 3 0.10507901997300217 1
genomeend

genomestart 3
node 1 1
node 2 1
node 3 2
gene 1 1 3 -0.8847362282203595 1
gene 2 2 3 0.8330094458195928 1
genomeend

genomestart 4
node 1 1
node 2 1
node 3 2
gene 1 1 3 0.17542134763646156 1
gene 2 2 3 -0.6214945789402561 1
genomeend

genomestart 5
node 1 1
node 2 1
node 3 2
gene 1 1 3 0.9850781941943921 1
gene 2 2 3 -0.1095912320258724 1
genomeend

genomestart 6
node 1 1
node 2 1
node 3 2
gene 1 1 3 0.24316409840801156 1
gene 2 2 3 -0.19571942041848767 1
genomeend

genomestart 7
node 1 1
node 2 1
node 3 2
gene 1 1 3 -0.12113173380243258 1
gene 2 2 3 0.334182636176913 1
genomeend

genomestart 8
node 1 1
node 2 1
node 3 2
gene 1 1 3 0.3786572819327003 1
gene 2 2 3 0.4973043777582129 1
genomeend

genomestart 9
node 1 1
node 2 1
node 3 2
gene 1 1 3 0.5573237454206709 1
gene 2 2 3 0.40050107982409244 1
genomeend

genomestart 10
node 1 1
node 2 1
node 3 2
gene 1 1 3 -0.012146281548326976 1
gene 2 2 3 -0.03780763885096727 1
genomeend

genomestart 11
node 1 1
node 2 1
node 3 2
gene 1 1 3 0.17464671852650182 1
gene 2 2 3 0.18181648545690254 1
genomeend

genomestart 12
node 1 1
node 2 1
node 3 2
gene 1 1 3 -0.5007549077700534 1
gene 2 2 3 -0.2646868488318318 1
genomeend

genomestart 13
node 1 1
node 2 1
node 3 2
gene 1 1 3 -0.2726350050342011 1
gene 2 2 3 0.975825957549904 1
genomeend

genomestart 14
node 1 1
node 2 1
node 3 2
gene 1 1 3 0.7956044160439391 1
gene 2 2 3 0.9870393333252863 1
genomeend

genomestart 15
node 1 1
node 2 1
node 3 2
gene 1 1 3 0.5596345363777498 1
gene 2 2 3 -0.4473924340965134 1
genomeend

genomestart 16
node 1 1
node 2 1
node 3 2
gene 1 1 3 -0.6194915673370516 1
gene 2 2 3 -0.27772176307311247 1
genomeend

genomestart 17
node 1 1
node 2 1
node 3 2
gene 1 1 3 0.788397054791114 1
gene 2 2 3 -0.8386780948891888 1
genomeend

genomestart 18
node 1 1
node 2 1
node 3 2
gene 1 1 3 -0.23715711480149004 1
gene 2 2 3 0.24638043549675104 1
genomeend

genomestart 19
node 1 1
node 2 1
node 3 2
gene 1 1 3 0.7440306015138284 1
gene 2 2 3 -0.4662043000075081 1
genomeend

genomestart 20
node 1 1
node 2 1
node 3 2
gene 1 1 3 0.15017585015520463 1
gene 2 2 3 0.3279233971752844 1
genomeend

genomestart 21
node 1 1
node 2 1
node 3 2
gene 1 1 3 0.5413369205902584 1
gene 2 2 3 -0.7743688522242869 1
genomeend

genomestart 22
node 1 1
node 2 1
node 3 2
gene 1 1 3 -0.2984993918512737 1
gene 2 2 3 -0.980965798858288 1
genomeend

genomestart 23
node 1 1
node 2 1
node 3 2
gene 1 1 3 -0.4385674837374851 1
gene 2 2 3 -0.46495215562555314 1
genomeend

genomestart 24
node 1 1
node 2 1
node 3 2
gene 1 1 3 0.6006831392511681 1
gene 2 2 3 0.94077966974182 1
genomeend

genomestart 25
node 1 1
node 2 1
node 3 2
gene 1 1 3 -0.6246292494356032 1
gene 2 2 3 0.4721433100236858 1
genomeend

genomestart 26
node 1 1
node 2 1
node 3 2
gene 1 1 3 -0.9148286270277243 1
gene 2 2 3 -0.4212791524495023 1
genomeend

genomestart 27
node 1 1
node 2 1
node 3 2
gene 1 1 3 -0.6867712433171898 1
gene 2 2 3 -0.8026175867996649 1
genomeend

genomestart 28
node 1 1
node 2 1
node 3 2
gene 1 1 3 -0.7522721899232965 1
gene 2 2 3 -0.910572884635863 1
genomeend

genomestart 29
node 1 1
node 2 1
node 3 2
gene 1 1 3 0.7157833784835372 1
gene 2 2 3 0.5101962437973521 1
genomeend

genomestart 30
node 1 1
node 2 1
node 3 2
gene 1 1 3 -0.3260518649928065 1
gene 2 2 3 0.45461426318009013 1
genomeend

genomestart 31
node 1 1
node 2 1
node 3 2
gene 1 1 3 -0.2557389231993713 1
gene 2 2 3 0.3246202813679434 1
genomeend

genomestart 32
node 1 1
node 2 1
node 3 2
gene 1 1 3 -0.7661830167740643 1
gene 2 2 3 -0.5734813737449139 1
genomeend

genomestart 33
node 1 1
node 2 1
node 3 2
gene 1 1 3 -0.5553113863931393 1
gene 2 2 3 -0.7039691344404163 1
genomeend

genomestart 34
node 1 1
node 2 1
node 3 2
gene 1 1 3 -0.583774426250565 1
gene 2 2 3 -0.20481735892166864 1
genomeend

genomestart 35
node 1 1
node 2 1
node 3 2
gene 1 1 3 0.827697548789554 1
gene 2 2 3 -0.33025567174811155 1
genomeend

genomestart 36
node 1 1
node 2 1
node 3 2
gene 1 1 3 -0.7160160517554536 1
gene 2 2 3 -0.31896271716361047 1
genomeend

genomestart 37
node 1 1
node 2 1
node 3 2
gene 1 1 3 0.4761776857729586 1
gene 2 2 3 0.31772862374714606 1
genomeend

genomestart 38
node 1 1
node 2 1
node 3 2
gene 1 1 3 -0.734069494876705 1
gene 2 2 3 -0.10031083471976421 1
genomeend

genomestart 39
node 1 1
node 2 1
node 3 2
gene 1 1 3 -0.4923441212123334 1
gene 2 2 3 0.6534139221155033 1
genomeend

genomestart 40
node 1 1
node 2 1
node 3 2
gene 1 1 3 0.045892580677887485 1
gene 2 2 3 -0.8394178776929251 1
genomeend

genomestart 41
node 1 1
node 2 1
node 3 2
gene 1 1 3 -0.48402967243656936 1
gene 2 2 3 -0.6394260351155953 1
genomeend

genomestart 42
node 1 1
node 2 1
node 3 2
gene 1 1 3 -0.17602931626255602 1
gene 2 2 3 -0.9303982197742185 1
genomeend

genomestart 43
node 1 1
node 2 1
node 3 2
gene 1 1 3 -0.03996692442515426 1
gene 2 2 3 0.3565803421248879 1
genomeend

genomestart 44
node 1 1
node 2 1
node 3 2
gene 1 1 3 -0.45439637622632245 1
gene 2 2 3 -0.6181368978562951 1
genomeend

genomestart 45
node 1 1
node 2 1
node 3 2
gene 1 1 3 -0.38820970713838043 1
gene 2 2 3 -0.4188383692248623 1
genomeend

genomestart 46
node 1 1
node 2 1
node 3 2
gene 1 1 3 0.6960974311787124 1
gene 2 2 3 0.3898502338246578 1
genomeend

genomestart 47
node 1 1
node 2 1
node 3 2
gene 1 1 3 -0.5553481685376364 1
gene 2 2 3 -0.5381165938767779 1
genomeend

genomestart 48
node 1 1
node 2 1
node 3 2
gene 1 1 3 0.7042965796375656 1
gene 2 2 3 -0.15552564534262325 1
genomeend

genomestart 49
node 1 1
node 2 1
node 3 2
gene 1 1 3 -0.4835483329321536 1
gene 2 2 3 0.6689903201995421 1
genomeend

genomestart 50
node 1 1
node 2 1
node 3 2
gene 1 1 3 -0.6781821175217041 1
gene 2 2 3 -0.611772372525281 1
genomeend

genomestart 51
node 1 1
node 2 1
node 3 2
gene 1 1 3 0.8124478575777357 1
gene 2 2 3 0.7528237277589265 1
genomeend

genomestart 52
node 1 1
node 2 1
node 3 2
gene 1 1 3 -0.8580518533905573 1
gene 2 2 3 -0.43361385274530795 1
genomeend

genomestart 53
node 1 1
node 2 1
node 3 2
gene 1 1 3 0.28293873560280935 1
gene 2 2 3 0.33085766243865855 1
genomeend

genomestart 54
node 1 1
node 2 1
node 3 2
gene 1 1 3 0.9895512707116975 1
gene 2 2 3 0.1887534630154224 1
genomeend

genomestart 55
node 1 1
node 2 1
node 3 2
gene 1 1 3 0.9698687848471953 1
gene 2 2 3 0.5457859519276632 1
genomeend

genomestart 56
node 1 1
node 2 1
node 3 2
gene 1 1 3 -0.439095812360199 1
gene 2 2 3 0.11884445904788343 1
genomeend

genomestart 57
node 1 1
node 2 1
node 3 2
gene 1 1 3 -0.8006924397209405 1
gene 2 2 3 -0.3013519261526919 1
genomeend

genomestart 58
node 1 1
node 2 1
node 3 2
gene 1 1 3 -0.04250840236625775 1
gene 2 2 3 -0.18229568887478698 1
genomeend

genomestart 59
node 1 1
node 2 1
node 3 2
gene 1 1 3 -0.06710294643892867 1
gene 2 2 3 0.5994960369493232 1
genomeend

genomestart 60
node 1 1
node 2 1
node 3 2
gene 1 1 3 0.018903636577180416 1
gene 2 2 3 -0.0031441559987241963 1
genomeend

genomestart 61
node 1 1
node 2 1
node 3 2
gene 1 1 3 0.8866763073752595 1
gene 2 2 3 0.3245862051465078 1
genomeend

genomestart 62
node 1 1
node 2 1
node 3 2
gene 1 1 3 -0.5318498392065627 1
gene 2 2 3 0.6205257044837509 1
genomeend

genomestart 63
node 1 1
node 2 1
node 3 2
gene 1 1 3 -0.8215590972448531 1
gene 2 2 3 0.9942617074012561 1
genomeend

genomestart 64
node 1 1
node 2 1
node 3 2
gene 1 1 3 0.7298400071548365 1
gene 2 2 3 -0.18327520643003603 1
genomeend

genomestart 65
node 1 1
node 2 1
node 3 2
gene 1 1 3 -0.11123069802194718 1
gene 2 2 3 0.24642229801386495 1
genomeend

genomestart 66
node 1 1
node 2 1
node 3 2
gene 1 1 3 -0.3481033531640647 1
gene 2 2 3 0.9841871293613674 1
genomeend

genomestart 67
node 1 1
node 2 1
node 3 2
gene 1 1 3 0.22637159101520477 1
gene 2 2 3 0.08189341531318706 1
genomeend

genomestart 68
node 1 1
node 2 1
node 3 2
gene 1 1 3 -0.2037882089208417 1
gene 2 2 3 -0.47846843766358826 1
genomeend

genomestart 69
node 1 1
node 2 1
node 3 2
gene 1 1 3 0.7008689608142565 1
gene 2 2 3 0.13229907098479066 1
genomeend

genomestart 70
node 1 1
node 2 1
node 3 2
gene 1 1 3 -0.1665479023126345 1
gene 2 2 3 -0.18091416171075958 1
genomeend

genomestart 71
node 1 1
node 2 1
node 3 2
gene 1 1 3 0.44899049701875504 1
gene 2 2 3 0.47267336878905974 1
genomeend

genomestart 72
node 1 1
node 2 1
node 3 2
gene 1 1 3 -0.4365606158205776 1
gene 2 2 3 0.5863376707735076 1
genomeend

genomestart 73
node 1 1
node 2 1
node 3 2
gene 1 1 3 0.024758192357147824 1
gene 2 2 3 -0.748342124382214 1
genomeend

genomestart 74
node 1 1
node 2 1
node 3 2
gene 1 1 3 -0.21201462418722072 1
gene 2 2 3 -0.5077865421398973 1
genomeend

genomestart 75
node 1 1
node 2 1
node 3 2
gene 1 1 3 -0.5305528815452184 1
gene 2 2 3 -0.6356057189518132 1
genomeend

genomestart 76
node 1 1
node 2 1
node 3 2
gene 1 1 3 0.07809019401372719 1
gene 2 2 3 0.47707516102303826 1
genomeend

genomestart 77
node 1 1
node 2 1
node 3 2
gene 1 1 3 -0.1319811183259212 1
gene 2 2 3 -0.9057545466210156 1
genomeend

genomestart 78
node 1 1
node 2 1
node 3 2
gene 1 1 3 -0.6994691336430857 1
gene 2 2 3 0.10216574089788799 1
genomeend

genomestart 79
node 1 1
node 2 1
node 3 2
gene 1 1 3 -0.386035440514368 1
gene 2 2 3 -0.6119480914756078 1
genomeend

genomestart 80
node 1 1
node 2 1
node 3 2
gene 1 1 3 -0.648403581457639 1
gene 2 2 3 -0.5259284592572031 1
genomeend

genomestart 81
node 1 1
node 2 1
node 3 2
gene 1 1 3 -0.8395793448180086 1
gene 2 2 3 0.16848918043259087 1
genomeend

genomestart 82
node 1 1
node 2 1
node 3 2
gene 1 1 3 -0.45037505820039614 1
gene 2 2 3 0.38081242078084654 1
genomeend

genomestart 83
node 1 1
node 2 1
node 3 2
gene 1 1 3 -0.6051882969273431 1
gene 2 2 3 -0.3420243509467913 1
genomeend

genomestart 84
node 1 1
node 2 1
node 3 2
gene 1 1 3 -0.17937511067810985 1
gene 2 2 3 -0.8839584334810435 1
genomeend

genomestart 85
node 1 1
node 2 1
node 3 2
gene 1 1 3 -0.8713778527780537 1
gene 2 2 3 0.42420188722486396 1
genomeend

genomestart 86
node 1 1
node 2 1
node 3 2
gene 1 1 3 -0.18483878852242341 1
gene 2 2 3 0.9672850192451509 1
genomeend

genomestart 87
node 1 1
node 2 1
node 3 2
gene 1 1 3 -0.5542502090293078 1
gene 2 2 3 -0.10531851609721798 1
genomeend

genomestart 88
node 1 1
node 2 1
node 3 2
gene 1 1 3 0.7822622590153264 1
gene 2 2 3 0.5870786368879536 1
genomeend

genomestart 89
node 1 1
node 2 1
node 3 2
gene 1 1 3 0.5475906237375716 1
gene 2 2 3 -0.8184861746562025 1
genomeend

genomestart 90
node 1 1
node 2 1
node 3 2
gene 1 1 3 -0.9895355557860649 1
gene 2 2 3 0.6076197850042102 1
genomeend

genomestart 91
node 1 1
node 2 1
node 3 2
gene 1 1 3 -0.27844468999456173 1
gene 2 2 3 0.5738500717790815 1
genomeend

genomestart 92
node 1 1
node 2 1
node 3 2
gene 1 1 3 -0.6410222506734826 1
gene 2 2 3 -0.903375806271271 1
genomeend

genomestart 93
node 1 1
node 2 1
node 3 2
gene 1 1 3 -0.5252077172441534 1
gene 2 2 3 0.5523891501703299 1
genomeend

genomestart 94
node 1 1
node 2 1
node 3 2
gene 1 1 3 -0.4614166347790084 1
gene 2 2 3 -0.5742919338326191 1
genomeend

genomestart 95
node 1 1
node 2 1
node 3 2
gene 1 1 3 -0.7052577916427442 1
gene 2 2 3 -0.9788304765155846 1
genomeend

genomestart 96
node 1 1
node 2 1
node 3 2
gene 1 1 3 0.9314101011467161 1
gene 2 2 3 0.4187117068859624 1
genomeend

genomestart 97
node 1 1
node 2 1
node 3 2
gene 1 1 3 -0.08916339019828212 1
gene 2 2 3 -0.043208524820752325 1
genomeend

genomestart 98
node 1 1
node 2 1
node 3 2
gene 1 1 3 -0.02719790369154018 1
gene 2 2 3 0.05845802043524584 1
genomeend

genomestart 99
node 1 1
node 2 1
node 3 2
gene 1 1 3 0.6484968890844546 1
gene 2 2 3 -0.8906008432757037 1
genomeend

genomestart 100
node 1 1
node 2 1
node 3 2
gene 1 1 3 -0.1658575154254971 1
gene 2 2 3 0.360606122594726 1
genomeend

genomestart 101
node 1 1
node 2 1
node 3 2
gene 1 1 3 0.17464671852650182 1
gene 2 2 3 -0.748342124382214 1
gene 3 3 3 -0.6604012818711565 1
genomeend

genomestart 102
node 1 1
node 2 1
node 3 2
gene 1 1 3 -0.7867082806505316 1
gene 2 2 3 0.18411954217126492 1
genomeend

genomestart 103
node 1 1
node 2 1
node 3 2
gene 1 1 3 -0.4385674837374851 1
gene 2 2 3 -0.46495215562555314 1
gene 3 3 3 0.010641371077773076 1
genomeend

genomestart 104
node 1 1
node 2 1
node 3 2
gene 1 1 3 -0.2891036324726166 1
gene 2 2 3 -0.5552741459547134 1
genomeend

genomestart 105
node 1 1
node 2 1
node 3 2
gene 1 1 3 -0.31230672757072797 1
gene 2 2 3 0.534764470131837 1
genomeend

genomestart 106
node 1 1
node 2 1
node 3 2
gene 1 1 3 0.6960974311787124 1
gene 2 2 3 0.3898502338246578 1
gene 3 3 3 0.4530403184699685 1
genomeend

genomestart 107
node 1 1
node 2 1
node 3 2
node 4 3
gene 1 1 3 0.69868888571078 0
gene 2 2 3 -0.7089752546922291 1
gene 4 1 4 0.9131105828342367 1
gene 5 4 3 0.7096551474979647 1
genomeend

genomestart 108
node 1 1
node 2 1
node 3 2
gene 1 1 3 -0.5632123990090299 1
gene 2 2 3 0.10946898136321837 1
genomeend

genomestart 109
node 1 1
node 2 1
node 3 2
gene 1 1 3 0.593832083910152 1
gene 2 2 3 -0.7074154513757052 1
genomeend

genomestart 110
node 1 1
node 2 1
node 3 2
gene 1 1 3 -0.8538948620077754 1
gene 2 2 3 0.8341299889559036 1
genomeend

genomestart 111
node 1 1
node 2 1
node 3 2
gene 1 1 3 -0.8380071255021118 1
gene 2 2 3 0.2776168333461676 1
genomeend

genomestart 112
node 1 1
node 2 1
node 3 2
gene 1 1 3 -0.24276256746661096 1
gene 2 2 3 -0.9247797242471475 1
genomeend

genomestart 113
node 1 1
node 2 1
node 3 2
node 5 3
gene 1 1 3 0.5573237454206709 0
gene 2 2 3 0.40050107982409244 1
gene 6 1 5 0.21010405948049138 1
gene 7 5 3 -0.7712508465094097 0
genomeend

genomestart 114
node 1 1
node 2 1
node 3 2
gene 1 1 3 -0.1267019809260993 1
gene 2 2 3 -0.6144675026522693 1
genomeend

genomestart 115
node 1 1
node 2 1
node 3 2
node 6 3
gene 1 1 3 0.4527028076982442 1
gene 2 2 3 -0.18105415891561427 1
gene 3 3 3 0.3643602577520786 0
gene 8 3 6 0.288600219510481 0
gene 9 6 3 0.06944139665544058 1
genomeend

genomestart 116
node 1 1
node 2 1
node 3 2
gene 1 1 3 0.4761776857729586 1
gene 2 2 3 0.7172489946274176 1
genomeend

genomestart 117
node 1 1
node 2 1
node 3 2
gene 1 1 3 -0.2509572628364275 1
gene 2 2 3 0.05558838631961582 1
genomeend

genomestart 118
node 1 1
node 2 1
node 3 2
gene 1 1 3 -0.11995159236406028 1
gene 2 2 3 0.9466830691729623 1
genomeend

genomestart 119
node 1 1
node 2 1
node 3 2
node 7 3
gene 1 1 3 -0.3241477070709732 0
gene 2 2 3 0.45384754070971456 1
gene 10 1 7 0.1606637643156722 1
gene 11 7 3 -0.3241477070709732 1
genomeend

genomestart 120
node 1 1
node 2 1
node 3 2
node 8 3
gene 1 1 3 0.06451159459312439 1
gene 2 2 3 0.5671765498178296 0
gene 3 3 3 0.5753843438557849 1
gene 12 2 8 -0.9767802624189866 0
gene 13 8 3 0.4139220212502479 1
genomeend

genomestart 121
node 1 1
node 2 1
node 3 2
node 9 3
gene 1 1 3 0.9698687848471953 1
gene 2 2 3 0.47707516102303826 1
gene 3 3 3 0.24904619069900413 0
gene 14 3 9 -0.2992758236042511 0
gene 15 9 3 0.36227221440548174 1
genomeend

genomestart 122
node 1 1
node 2 1
node 3 2
node 10 3
gene 1 1 3 0.8866763073752595 1
gene 2 2 3 0.9257103088528167 0
gene 16 2 10 -0.17390643692863295 0
gene 17 10 3 -0.7460775491135377 1
genomeend

genomestart 123
node 1 1
node 2 1
node 3 2
gene 1 1 3 -0.2020021630835539 1
gene 2 2 3 -0.2917997296049092 1
genomeend

genomestart 124
node 1 1
node 2 1
node 3 2
gene 1 1 3 0.6960974311787124 1
gene 2 2 3 0.5385171615635812 1
genomeend

genomestart 125
node 1 1
node 2 1
node 3 2
gene 1 1 3 0.7101234634432882 1
gene 2 2 3 0.8161233235723231 1
gene 3 3 3 0.3271633033053032 1
genomeend

genomestart 126
node 1 1
node 2 1
node 3 2
gene 1 1 3 0.3608741384604621 1
gene 2 2 3 -0.9612103334290603 1
genomeend

genomestart 127
node 1 1
node 2 1
node 3 2
node 11 3
gene 1 1 3 0.639465403129852 0
gene 2 2 3 0.04070953792331378 1
gene 18 1 11 0.4332049836270314 1
gene 19 11 3 0.32764781668476406 1
genomeend

genomestart 128
node 1 1
node 2 1
node 3 2
gene 1 1 3 -0.8678480688873519 1
gene 2 2 3 0.4721433100236858 1
genomeend

genomestart 129
node 1 1
node 2 1
node 3 2
gene 1 1 3 -0.46612514608439914 1
gene 2 2 3 -0.6007868088853199 1
genomeend

genomestart 130
node 1 1
node 2 1
node 3 2
gene 1 1 3 -0.8042397479750069 1
gene 2 2 3 -0.5762072127322454 1
genomeend

genomestart 131
node 1 1
node 2 1
node 3 2
gene 1 1 3 -0.23715711480149004 1
gene 2 2 3 0.3245862051465078 1
genomeend

genomestart 132
node 1 1
node 2 1
node 3 2
gene 1 1 3 0.5475906237375716 1
gene 2 2 3 -0.8184861746562025 1
genomeend

genomestart 133
node 1 1
node 2 1
node 3 2
gene 1 1 3 -0.1182329404893846 1
gene 2 2 3 -0.5703136523542609 1
genomeend

genomestart 134
node 1 1
node 2 1
node 3 2
gene 1 1 3 0.9313826911182388 1
gene 2 2 3 0.2898668384307521 1
genomeend

genomestart 135
node 1 1
node 2 1
node 3 2
gene 1 1 3 0.2910349210313715 1
gene 2 2 3 0.8675587649108589 1
gene 3 3 3 -0.4615127930031683 1
genomeend

genomestart 136
node 1 1
node 2 1
node 3 2
gene 1 1 3 0.5596345363777498 1
gene 2 2 3 -0.4473924340965134 1
genomeend

genomestart 137
node 1 1
node 2 1
node 3 2
gene 1 1 3 -0.4245661676696165 1
gene 2 2 3 0.8550221151604607 1
genomeend

genomestart 138
node 1 1
node 2 1
node 3 2
gene 1 1 3 -0.6765090660931353 1
gene 2 2 3 0.6418447562847236 1
gene 3 3 3 -0.5953832896773805 1
genomeend

genomestart 139
node 1 1
node 2 1
node 3 2
gene 1 1 3 0.030793048426920766 1
gene 2 2 3 0.04875234991375177 1
genomeend

genomestart 140
node 1 1
node 2 1
node 3 2
gene 1 1 3 -0.06815559363888402 1
gene 2 2 3 0.7926038666953286 1
genomeend

genomestart 141
node 1 1
node 2 1
node 3 2
gene 1 1 3 0.8479421387335802 1
gene 2 2 3 0.8776596368963673 1
genomeend

genomestart 142
node 1 1
node 2 1
node 3 2
gene 1 1 3 -0.8032826834532623 1
gene 2 2 3 0.9215516344129298 1
gene 3 3 3 0.7139875612326139 1
genomeend

genomestart 143
node 1 1
node 2 1
node 3 2
gene 1 1 3 0.612233088370238 1
gene 2 2 3 -0.4824747896214896 1
gene 3 3 3 -0.38930289379097993 1
genomeend

genomestart 144
node 1 1
node 2 1
node 3 2
gene 1 1 3 -0.208812547020493 1
gene 2 2 3 0.1887534630154224 1
genomeend

genomestart 145
node 1 1
node 2 1
node 3 2
gene 1 1 3 0.9850781941943921 1
gene 2 2 3 -0.1095912320258724 1
genomeend

genomestart 146
node 1 1
node 2 1
node 3 2
gene 1 1 3 0.019088418995910628 1
gene 2 2 3 0.7627559517253013 1
genomeend

genomestart 147
node 1 1
node 2 1
node 3 2
node 12 3
gene 1 1 3 -0.9550821963248123 1
gene 2 2 3 0.20731444701048662 0
gene 20 2 12 0.03641353973474204 0
gene 21 12 3 0.35078587317407395 1
genomeend

genomestart 148
node 1 1
node 2 1
node 3 2
node 13 3
gene 1 1 3 -0.27145321372052256 1
gene 2 2 3 0.32939702415597993 0
gene 22 2 13 1.0 1
gene 23 13 3 0.32939702415597993 1
genomeend

genomestart 149
node 1 1
node 2 1
node 3 2
node 14 3
gene 1 1 3 0.15017585015520463 1
gene 2 2 3 0.015169734486502384 0
gene 24 2 14 0.9779779430828985 1
gene 25 14 3 0.8962199183117697 0
genomeend

genomestart 150
node 1 1
node 2 1
node 3 2
gene 1 1 3 0.3589039060429031 1
gene 2 2 3 -0.12405007884621988 1
genomeend

genomestart 151
node 1 1
node 2 1
node 3 2
gene 1 1 3 -0.5231835011299255 1
gene 2 2 3 -0.03128291966427066 1
gene 3 3 3 -0.5165186647987998 1
genomeend

genomestart 152
node 1 1
node 2 1
node 3 2
gene 1 1 3 0.8124478575777357 1
gene 2 2 3 0.7528237277589265 1
gene 3 3 3 -0.8901414718595213 0
genomeend

genomestart 153
node 1 1
node 2 1
node 3 2
gene 1 1 3 0.801538372765629 1
gene 2 2 3 0.14718186275686762 1
genomeend

genomestart 154
node 1 1
node 2 1
node 3 2
node 15 3
gene 1 1 3 0.13592017920736377 1
gene 2 2 3 -0.4880546701030667 1
gene 3 3 3 0.07533978447056033 0
gene 26 3 15 1.0 1
gene 27 15 3 0.07533978447056033 1
genomeend

genomestart 155
node 1 1
node 2 1
node 3 2
gene 1 1 3 0.837544471452703 1
gene 2 2 3 -0.6399924751510604 1
genomeend

genomestart 156
node 1 1
node 2 1
node 3 2
gene 1 1 3 0.5413042005419946 1
gene 2 2 3 0.34538073482762177 1
gene 3 3 3 -0.7591822473860146 1
genomeend

genomestart 157
node 1 1
node 2 1
node 3 2
gene 1 1 3 -0.3964054614368512 1
gene 2 2 3 0.18386987009686662 1
genomeend

genomestart 158
node 1 1
node 2 1
node 3 2
gene 1 1 3 -0.715905974422148 1
gene 2 2 3 -0.6527695098132367 1
genomeend

genomestart 159
node 1 1
node 2 1
node 3 2
gene 1 1 3 -0.6994691336430857 1
gene 2 2 3 -0.3594931149456191 1
genomeend

genomestart 160
node 1 1
node 2 1
node 3 2
node 16 3
gene 1 1 3 0.6215369120135024 1
gene 2 2 3 0.4623803806797744 0
gene 28 2 16 -0.9185718048761787 1
gene 29 16 3 0.5496982597766527 0
genomeend

genomestart 161
node 1 1
node 2 1
node 3 2
gene 1 1 3 -0.2386667985379165 1
gene 2 2 3 -0.15066966026414996 1
genomeend

genomestart 162
node 1 1
node 2 1
node 3 2
node 17 3
gene 1 1 3 0.30056559257430504 1
gene 2 2 3 0.0537920325093576 0
gene 30 2 17 -0.8557959065735388 1
gene 31 17 3 0.576616630124961 1
genomeend

genomestart 163
node 1 1
node 2 1
node 3 2
gene 1 1 3 0.5606221753999938 1
gene 2 2 3 0.25731219617207546 1
genomeend

genomestart 164
node 1 1
node 2 1
node 3 2
gene 1 1 3 0.024758192357147824 1
gene 2 2 3 -0.748342124382214 1
genomeend

genomestart 165
node 1 1
node 2 1
node 3 2
node 18 3
gene 1 1 3 0.024758192357147824 0
gene 2 2 3 0.1887534630154224 1
gene 32 1 18 -0.17560984994549989 1
gene 33 18 3 -0.18005726011929368 1
genomeend

genomestart 166
node 1 1
node 2 1
node 3 2
node 19 3
gene 1 1 3 -0.40707590857138665 1
gene 2 2 3 -0.049725347720230406 0
gene 34 2 19 1.0 1
gene 35 19 3 -0.049725347720230406 1
genomeend

genomestart 167
node 1 1
node 2 1
node 3 2
gene 1 1 3 0.4823161529245149 1
gene 2 2 3 -0.8386780948891888 1
genomeend

genomestart 168
node 1 1
node 2 1
node 3 2
gene 1 1 3 0.07809019401372719 1
gene 2 2 3 -0.8394178776929251 1
gene 3 3 3 0.05300693896076525 1
genomeend

genomestart 169
node 1 1
node 2 1
node 3 2
gene 1 1 3 0.6912970233138755 1
gene 2 2 3 -0.4365471873532554 1
gene 3 3 3 -0.9083292378346578 1
genomeend

genomestart 170
node 1 1
node 2 1
node 3 2
gene 1 1 3 0.9607196478499087 1
gene 2 2 3 -0.8382354164585263 1
genomeend

genomestart 171
node 1 1
node 2 1
node 3 2
node 20 3
gene 1 1 3 -0.6590265776832539 1
gene 2 2 3 -0.5750297290188949 0
gene 36 2 20 -0.7628049519006728 0
gene 37 20 3 -0.931491459950236 0
genomeend

genomestart 172
node 1 1
node 2 1
node 3 2
gene 1 1 3 0.9834879890115442 1
gene 2 2 3 -0.500009431126153 1
genomeend

genomestart 173
node 1 1
node 2 1
node 3 2
gene 1 1 3 -0.6636528787246004 1
gene 2 2 3 -0.23088841289944229 1
gene 3 3 3 0.026579505550854754 1
genomeend

genomestart 174
node 1 1
node 2 1
node 3 2
gene 1 1 3 0.9902127700475298 1
gene 2 2 3 -0.42368532018562366 1
genomeend

genomestart 175
node 1 1
node 2 1
node 3 2
gene 1 1 3 0.17542134763646156 1
gene 2 2 3 -0.6214945789402561 1
gene 3 3 3 0.07608952847694184 1
genomeend

genomestart 176
node 1 1
node 2 1
node 3 2
gene 1 1 3 0.5475906237375716 1
gene 2 2 3 -0.8184861746562025 1
genomeend

genomestart 177
node 1 1
node 2 1
node 3 2
gene 1 1 3 -0.4720524835772605 1
gene 2 2 3 -0.13199403481027105 1
genomeend

genomestart 178
node 1 1
node 2 1
node 3 2
gene 1 1 3 0.9850781941943921 1
gene 2 2 3 -0.1095912320258724 1
genomeend

genomestart 179
node 1 1
node 2 1
node 3 2
gene 1 1 3 0.5535099211717799 1
gene 2 2 3 0.16961009925014403 1
genomeend

genomestart 180
node 1 1
node 2 1
node 3 2
gene 1 1 3 -0.21457695534089327 1
gene 2 2 3 -0.6363301730025614 1
genomeend

genomestart 181
node 1 1
node 2 1
node 3 2
gene 1 1 3 0.8514404237949943 1
gene 2 2 3 -0.4068847611371751 1
genomeend

genomestart 182
node 1 1
node 2 1
node 3 2
gene 1 1 3 0.9698687848471953 1
gene 2 2 3 0.9486187216810459 1
gene 3 3 3 -0.5532342425265885 1
genomeend

genomestart 183
node 1 1
node 2 1
node 3 2
gene 1 1 3 -0.20258404595533686 1
gene 2 2 3 0.5578965560877895 1
genomeend

genomestart 184
node 1 1
node 2 1
node 3 2
gene 1 1 3 -0.9143064002386782 1
gene 2 2 3 -0.41468728060284266 1
genomeend

genomestart 185
node 1 1
node 2 1
node 3 2
gene 1 1 3 0.15921851803050258 1
gene 2 2 3 0.17890966102709582 1
gene 3 3 3 0.15990652649143755 1
genomeend

genomestart 186
node 1 1
node 2 1
node 3 2
gene 1 1 3 0.15017585015520463 1
gene 2 2 3 0.2875414842827303 1
genomeend

genomestart 187
node 1 1
node 2 1
node 3 2
gene 1 1 3 -0.2984993918512737 1
gene 2 2 3 -0.980965798858288 1
genomeend

genomestart 188
node 1 1
node 2 1
node 3 2
gene 1 1 3 -0.012146281548326976 1
gene 2 2 3 0.334182636176913 1
genomeend

genomestart 189
node 1 1
node 2 1
node 3 2
gene 1 1 3 -0.07437622180787462 1
gene 2 2 3 0.5205025234795813 1
genomeend

genomestart 190
node 1 1
node 2 1
node 3 2
gene 1 1 3 0.07809019401372719 1
gene 2 2 3 0.47707516102303826 1
genomeend

genomestart 191
node 1 1
node 2 1
node 3 2
gene 1 1 3 0.048123454915715125 1
gene 2 2 3 -0.980965798858288 1
gene 3 3 3 0.8059575598734557 1
genomeend

genomestart 192
node 1 1
node 2 1
node 3 2
gene 1 1 3 -0.7852214775723048 1
gene 2 2 3 0.7563838268954552 1
genomeend

genomestart 193
node 1 1
node 2 1
node 3 2
gene 1 1 3 -0.09684489564415966 1
gene 2 2 3 -0.7517783567916604 1
genomeend

genomestart 194
node 1 1
node 2 1
node 3 2
gene 1 1 3 0.3515307127976143 1
gene 2 2 3 0.9841816605820379 1
genomeend

genomestart 195
node 1 1
node 2 1
node 3 2
gene 1 1 3 0.9380120415100862 1
gene 2 2 3 -0.1095912320258724 1
genomeend

genomestart 196
node 1 1
node 2 1
node 3 2
gene 1 1 3 -0.968457553272432 1
gene 2 2 3 0.2443702891841787 1
genomeend

genomestart 197
node 1 1
node 2 1
node 3 2
node 21 3
gene 1 1 3 -0.2223419663891304 0
gene 2 2 3 -0.020115560714219938 1
gene 38 1 21 1.0 1
gene 39 21 3 -0.2223419663891304 1
genomeend

genomestart 198
node 1 1
node 2 1
node 3 2
gene 1 1 3 -0.6994691336430857 1
gene 2 2 3 0.10216574089788799 1
genomeend

genomestart 199
node 1 1
node 2 1
node 3 2
gene 1 1 3 -0.8395793448180086 1
gene 2 2 3 0.24638043549675104 1
genomeend

genomestart 200
node 1 1
node 2 1
node 3 2
gene 1 1 3 0.7614301687475146 1
gene 2 2 3 0.7591907975181515 1
genomeend

genomestart 201
node 1 1
node 2 1
node 3 2
node 18 3
gene 1 1 3 0.30056559257430504 0
gene 2 2 3 0.0537920325093576 0
gene 3 3 3 -0.9391403060480762 1
gene 32 1 18 -0.17560984994549989 1
gene 33 18 3 -0.18005726011929368 1
genomeend

genomestart 202
node 1 1
node 2 1
node 3 2
node 22 3
gene 1 1 3 -0.20889556105639606 1
gene 2 2 3 0.04875234991375177 0
gene 40 2 22 0.1124124737923673 0
gene 41 22 3 -0.7696820044440492 1
genomeend

genomestart 203
node 1 1
node 2 1
node 3 2
node 6 3
gene 1 1 3 -0.2421252220319039 0
gene 2 2 3 -0.9537066590148643 1
gene 3 3 3 0.3643602577520786 0
gene 8 3 6 0.288600219510481 0
gene 9 6 3 0.06944139665544058 1
genomeend

genomestart 204
node 1 1
node 2 1
node 3 2
gene 1 1 3 -0.8665904286452687 1
gene 2 2 3 -0.7161568893779904 1
gene 3 3 3 0.749515846984352 1
genomeend

genomestart 205
node 1 1
node 2 1
node 3 2
gene 1 1 3 -0.3321729418500272 1
gene 2 2 3 0.7627559517253013 1
genomeend

genomestart 206
node 1 1
node 2 1
node 3 2
node 6 3
gene 1 1 3 -0.8147119300863112 1
gene 2 2 3 0.21400560672313673 1
gene 3 3 3 0.3643602577520786 0
gene 8 3 6 0.288600219510481 0
gene 9 6 3 0.06944139665544058 1
gene 42 2 6 -0.06467713005210984 0
genomeend

genomestart 207
node 1 1
node 2 1
node 3 2
gene 1 1 3 0.6517897110827664 1
gene 2 2 3 0.31514574580261734 1
genomeend

genomestart 208
node 1 1
node 2 1
node 3 2
node 8 3
gene 1 1 3 0.277856576074203 1
gene 2 2 3 -0.9074551061041259 0
gene 3 3 3 -0.6249467265683001 1
gene 12 2 8 -0.9767802624189866 0
gene 13 8 3 0.4139220212502479 1
genomeend

genomestart 209
node 1 1
node 2 1
node 3 2
node 20 3
gene 1 1 3 0.6515286104555302 1
gene 2 2 3 -0.17646339122107357 1
gene 36 2 20 -0.7628049519006728 0
gene 37 20 3 -0.931491459950236 0
genomeend

genomestart 210
node 1 1
node 2 1
node 3 2
node 11 3
gene 1 1 3 -0.06890933323421444 0
gene 2 2 3 -0.014542887476419741 1
gene 18 1 11 0.4332049836270314 1
gene 19 11 3 0.32764781668476406 1
genomeend

genomestart 211
node 1 1
node 2 1
node 3 2
node 23 3
gene 1 1 3 -0.0487273312306189 1
gene 2 2 3 0.3142692362392321 1
gene 3 3 3 -0.8901414718595213 0
gene 43 3 23 1.0 1
gene 44 23 3 -0.4963490386335926 1
genomeend

genomestart 212
node 1 1
node 2 1
node 3 2
gene 1 1 3 0.7337458850458402 0
gene 2 2 3 -0.49069800514198836 1
gene 3 3 3 -0.5953832896773805 1
genomeend

genomestart 213
node 1 1
node 2 1
node 3 2
gene 1 1 3 0.019088418995910628 1
gene 2 2 3 0.5509841402760306 1
genomeend

genomestart 214
node 1 1
node 2 1
node 3 2
gene 1 1 3 0.09385624692908068 1
gene 2 2 3 -0.8517757856360428 1
gene 3 3 3 -0.8990099408441575 0
genomeend

genomestart 215
node 1 1
node 2 1
node 3 2
node 5 3
node 24 3
gene 1 1 3 0.6731662353536615 1
gene 2 2 3 -0.5270302862239485 1
gene 6 1 5 0.21010405948049138 1
gene 7 5 3 -0.7712508465094097 0
gene 45 5 24 1.0 1
gene 46 24 3 0.04830533040456719 1
genomeend

genomestart 216
node 1 1
node 2 1
node 3 2
node 17 3
gene 1 1 3 0.11641716542453251 1
gene 2 2 3 0.5010646068424789 1
gene 3 3 3 0.9499825057256566 1
gene 30 2 17 -0.8557959065735388 1
gene 31 17 3 0.576616630124961 1
genomeend

genomestart 217
node 1 1
node 2 1
node 3 2
gene 1 1 3 0.5988889344905025 1
gene 2 2 3 0.4114768543994197 1
genomeend

genomestart 218
node 1 1
node 2 1
node 3 2
gene 1 1 3 0.30292244670062096 1
gene 2 2 3 0.6147671943411348 1
gene 3 3 3 0.5470826131510681 1
genomeend

genomestart 219
node 1 1
node 2 1
node 3 2
gene 1 1 3 -0.9331853766997715 1
gene 2 2 3 0.2898668384307521 1
gene 3 3 3 0.07608952847694184 1
genomeend

genomestart 220
node 1 1
node 2 1
node 3 2
node 25 3
gene 1 1 3 -0.7002525140177783 1
gene 2 2 3 -0.5519448590116687 0
gene 47 2 25 1.0 1
gene 48 25 3 -0.5519448590116687 1
genomeend

genomestart 221
node 1 1
node 2 1
node 3 2
gene 1 1 3 0.612233088370238 1
gene 2 2 3 -0.4824747896214896 1
gene 3 3 3 -0.14842103749999436 1
genomeend

genomestart 222
node 1 1
node 2 1
node 3 2
node 20 3
gene 1 1 3 0.011045882329832168 1
gene 2 2 3 -0.2923359203446554 0
gene 36 2 20 -0.7628049519006728 0
gene 37 20 3 -0.931491459950236 0
genomeend

genomestart 223
node 1 1
node 2 1
node 3 2
gene 1 1 3 -0.3448006621319245 1
gene 2 2 3 -0.18719445488510478 1
gene 3 3 3 0.7009952486848001 1
genomeend

genomestart 224
node 1 1
node 2 1
node 3 2
node 11 3
gene 1 1 3 0.41439645450361273 0
gene 2 2 3 0.9280684641919327 1
gene 18 1 11 0.4332049836270314 1
gene 19 11 3 0.32764781668476406 1
gene 49 11 11 -0.26179259422614476 1
genomeend

genomestart 225
node 1 1
node 2 1
node 3 2
gene 1 1 3 0.12335256711808584 1
gene 2 2 3 -0.2542041362271604 0
gene 3 3 3 -0.8901414718595213 0
genomeend

genomestart 226
node 1 1
node 2 1
node 3 2
node 12 3
gene 1 1 3 -0.7178292995618328 1
gene 2 2 3 0.8212667248133723 0
gene 20 2 12 0.03641353973474204 0
gene 21 12 3 0.35078587317407395 1
genomeend

genomestart 227
node 1 1
node 2 1
node 3 2
gene 1 1 3 0.5698413010339682 1
gene 2 2 3 0.12147084534207975 1
genomeend

genomestart 228
node 1 1
node 2 1
node 3 2
node 26 3
gene 1 1 3 -0.029886516008423736 1
gene 2 2 3 0.0736606039676202 0
gene 50 2 26 0.8842277441967353 0
gene 51 26 3 0.6187111629056723 1
genomeend

genomestart 229
node 1 1
node 2 1
node 3 2
gene 1 1 3 -0.03811801962770167 1
gene 2 2 3 -0.38292013803796987 0
genomeend

genomestart 230
node 1 1
node 2 1
node 3 2
node 16 3
gene 1 1 3 0.1207764938177518 1
gene 2 2 3 -0.4704898162993265 1
gene 28 2 16 -0.9185718048761787 1
gene 29 16 3 0.5496982597766527 0
genomeend

genomestart 231
node 1 1
node 2 1
node 3 2
gene 1 1 3 -0.14347588679845968 1
gene 2 2 3 -0.5824954140715979 0
gene 3 3 3 -0.8901414718595213 0
genomeend

genomestart 232
node 1 1
node 2 1
node 3 2
node 9 3
gene 1 1 3 -0.8318335675974603 1
gene 2 2 3 -0.8926480811725725 1
gene 3 3 3 0.24904619069900413 0
gene 14 3 9 -0.2992758236042511 0
gene 15 9 3 0.36227221440548174 1
genomeend

genomestart 233
node 1 1
node 2 1
node 3 2
node 20 3
gene 1 1 3 0.9100493149857257 1
gene 2 2 3 0.18375629669400817 0
gene 36 2 20 -0.7628049519006728 0
gene 37 20 3 -0.931491459950236 0
genomeend

genomestart 234
node 1 1
node 2 1
node 3 2
gene 1 1 3 0.583019324718114 1
gene 2 2 3 0.6807072628665662 1
gene 3 3 3 -0.9083292378346578 1
genomeend

genomestart 235
node 1 1
node 2 1
node 3 2
gene 1 1 3 0.7930408971152201 1
gene 2 2 3 0.8050925683572936 1
genomeend

genomestart 236
node 1 1
node 2 1
node 3 2
gene 1 1 3 0.9698687848471953 1
gene 2 2 3 -0.8619796176423119 1
gene 3 3 3 -0.5532342425265885 1
genomeend

genomestart 237
node 1 1
node 2 1
node 3 2
gene 1 1 3 0.7899126984543761 1
gene 2 2 3 -0.9131157603045291 0
gene 3 3 3 -0.5292508772825671 1
genomeend

genomestart 238
node 1 1
node 2 1
node 3 2
gene 1 1 3 0.030793048426920766 1
gene 2 2 3 0.6732214918853358 1
genomeend

genomestart 239
node 1 1
node 2 1
node 3 2
node 9 3
node 27 3
gene 1 1 3 -0.143288165518072 1
gene 2 2 3 0.8103837968373298 1
gene 3 3 3 0.24904619069900413 0
gene 14 3 9 -0.2992758236042511 0
gene 15 9 3 0.36227221440548174 1
gene 52 3 27 1.0 1
gene 53 27 9 -0.2992758236042511 1
genomeend

genomestart 240
node 1 1
node 2 1
node 3 2
node 17 3
gene 1 1 3 -0.208812547020493 1
gene 2 2 3 0.0537920325093576 0
gene 30 2 17 -0.8557959065735388 1
gene 31 17 3 0.576616630124961 1
genomeend

genomestart 241
node 1 1
node 2 1
node 3 2
gene 1 1 3 0.4109831099302971 1
gene 2 2 3 -0.7074154513757052 1
genomeend

genomestart 242
node 1 1
node 2 1
node 3 2
gene 1 1 3 -0.6407799889479979 1
gene 2 2 3 -0.2964104423501446 1
genomeend

genomestart 243
node 1 1
node 2 1
node 3 2
node 12 3
node 28 3
gene 1 1 3 -0.9550821963248123 1
gene 2 2 3 -0.18594660238979555 0
gene 20 2 12 0.03641353973474204 0
gene 21 12 3 0.35078587317407395 1
gene 54 1 12 -0.9414154072809842 1
gene 55 2 28 0.2219789301013121 1
gene 56 28 12 -0.9345395899158273 1
genomeend

genomestart 244
node 1 1
node 2 1
node 3 2
node 29 3
gene 1 1 3 -0.8678480688873519 1
gene 2 2 3 0.4721433100236858 0
gene 3 3 3 -0.4648713244103213 1
gene 57 2 29 -0.4493369068261277 0
gene 58 29 3 0.7549268479923714 1
genomeend

genomestart 245
node 1 1
node 2 1
node 3 2
gene 1 1 3 0.5475906237375716 1
gene 2 2 3 -0.8184861746562025 1
gene 3 3 3 0.6327722121713656 1
genomeend

genomestart 246
node 1 1
node 2 1
node 3 2
node 11 3
gene 1 1 3 -0.19256456507117903 1
gene 2 2 3 -0.6272002517161066 1
gene 18 1 11 0.4332049836270314 1
gene 19 11 3 0.32764781668476406 1
genomeend

genomestart 247
node 1 1
node 2 1
node 3 2
gene 1 1 3 0.1935279935941253 1
gene 2 2 3 0.7289325132664219 1
gene 3 3 3 -0.5953832896773805 1
genomeend

genomestart 248
node 1 1
node 2 1
node 3 2
node 30 3
gene 1 1 3 -0.8380071255021118 1
gene 2 2 3 0.2776168333461676 0
gene 3 3 3 -0.8626298472878676 1
gene 59 2 30 1.0 1
gene 60 30 3 0.2776168333461676 1
genomeend

genomestart 249
node 1 1
node 2 1
node 3 2
node 31 3
gene 1 1 3 -0.3076668574380693 1
gene 2 2 3 -0.7911333923202362 0
gene 3 3 3 -0.4615127930031683 1
gene 61 2 31 0.8408968498712691 1
gene 62 31 3 -0.3922751500343047 1
genomeend

genomestart 250
node 1 1
node 2 1
node 3 2
node 32 3
gene 1 1 3 0.593832083910152 0
gene 2 2 3 -0.7074154513757052 0
gene 63 1 32 1.0 1
gene 64 32 3 0.593832083910152 1
genomeend

genomestart 251
node 1 1
node 2 1
node 3 2
node 4 3
gene 1 1 3 0.9991266712958357 1
gene 2 2 3 -0.7089752546922291 1
gene 4 1 4 0.9131105828342367 1
gene 5 4 3 0.7096551474979647 1
gene 65 2 4 -0.9691022772744087 1
genomeend

genomestart 252
node 1 1
node 2 1
node 3 2
node 14 3
gene 1 1 3 0.15017585015520463 1
gene 2 2 3 0.14718186275686762 0
gene 24 2 14 0.9779779430828985 1
gene 25 14 3 0.8962199183117697 0
genomeend

genomestart 253
node 1 1
node 2 1
node 3 2
gene 1 1 3 0.07809019401372719 1
gene 2 2 3 -0.8394178776929251 1
gene 3 3 3 0.05300693896076525 1
genomeend

genomestart 254
node 1 1
node 2 1
node 3 2
gene 1 1 3 0.17464671852650182 1
gene 2 2 3 0.8161233235723231 1
gene 3 3 3 -0.6604012818711565 1
genomeend

genomestart 255
node 1 1
node 2 1
node 3 2
node 16 3
gene 1 1 3 0.6887305706156596 1
gene 2 2 3 0.1527515684873043 0
gene 28 2 16 -0.9185718048761787 1
gene 29 16 3 0.5496982597766527 0
genomeend

genomestart 256
node 1 1
node 2 1
node 3 2
node 16 3
gene 1 1 3 0.29508578780343 1
gene 2 2 3 0.24262712513510476 0
gene 28 2 16 -0.9185718048761787 1
gene 29 16 3 0.5496982597766527 0
genomeend

genomestart 257
node 1 1
node 2 1
node 3 2
gene 1 1 3 0.39314562343828585 1
gene 2 2 3 -0.9923215014297879 1
genomeend

genomestart 258
node 1 1
node 2 1
node 3 2
gene 1 1 3 0.39924707190811193 1
gene 2 2 3 0.06807238547000993 1
gene 3 3 3 -0.34838484701168204 1
genomeend

genomestart 259
node 1 1
node 2 1
node 3 2
node 17 3
gene 1 1 3 0.9698687848471953 1
gene 2 2 3 0.5957607594710206 0
gene 30 2 17 -0.8557959065735388 1
gene 31 17 3 0.576616630124961 1
gene 66 1 17 -0.22049463334254205 0
genomeend

genomestart 260
node 1 1
node 2 1
node 3 2
node 6 3
gene 1 1 3 0.4527028076982442 1
gene 2 2 3 -0.18105415891561427 1
gene 3 3 3 0.3643602577520786 0
gene 8 3 6 0.288600219510481 0
gene 9 6 3 0.06944139665544058 1
gene 67 1 6 -0.0806471451287124 1
genomeend

genomestart 261
node 1 1
node 2 1
node 3 2
node 33 3
gene 1 1 3 0.030793048426920766 1
gene 2 2 3 -0.7074154513757052 0
gene 68 2 33 1.0 1
gene 69 33 3 -0.7074154513757052 1
genomeend

genomestart 262
node 1 1
node 2 1
node 3 2
gene 1 1 3 0.4823161529245149 1
gene 2 2 3 0.21558699069732534 0
genomeend

genomestart 263
node 1 1
node 2 1
node 3 2
node 20 3
gene 1 1 3 -0.6590265776832539 1
gene 2 2 3 -0.5750297290188949 0
gene 36 2 20 -0.7628049519006728 0
gene 37 20 3 -0.931491459950236 0
genomeend

genomestart 264
node 1 1
node 2 1
node 3 2
gene 1 1 3 0.8866763073752595 1
gene 2 2 3 -0.748342124382214 0
gene 3 3 3 -0.6604012818711565 1
genomeend

genomestart 265
node 1 1
node 2 1
node 3 2
node 5 3
gene 1 1 3 -0.9114211049239986 0
gene 2 2 3 -0.3486073794611817 1
gene 6 1 5 0.21010405948049138 1
gene 7 5 3 -0.7712508465094097 0
genomeend

genomestart 266
node 1 1
node 2 1
node 3 2
node 7 3
gene 1 1 3 0.7633860737664995 0
gene 2 2 3 0.3244848543811899 1
gene 10 1 7 0.1606637643156722 1
gene 11 7 3 -0.3241477070709732 1
genomeend

genomestart 267
node 1 1
node 2 1
node 3 2
node 34 3
gene 1 1 3 -0.8836730259625724 1
gene 2 2 3 0.20868567708713937 0
gene 3 3 3 -0.5451121514327949 1
gene 70 2 34 1.0 1
gene 71 34 3 0.20868567708713937 1
genomeend

genomestart 268
node 1 1
node 2 1
node 3 2
node 35 3
gene 1 1 3 0.5888696400889828 1
gene 2 2 3 -0.3220851861816564 1
gene 3 3 3 -0.6203591424242945 0
gene 72 3 35 -0.7993552916325982 0
gene 73 35 3 0.8004751738880034 0
genomeend

genomestart 269
node 1 1
node 2 1
node 3 2
node 36 3
gene 1 1 3 0.555933388071294 0
gene 2 2 3 -0.1961019374596673 1
gene 3 3 3 0.4530403184699685 1
gene 74 1 36 1.0 1
gene 75 36 3 0.555933388071294 1
genomeend

genomestart 270
node 1 1
node 2 1
node 3 2
gene 1 1 3 -0.6676525027256832 1
gene 2 2 3 -0.8230484009192184 1
genomeend

genomestart 271
node 1 1
node 2 1
node 3 2
node 18 3
gene 1 1 3 0.6661763811097359 0
gene 2 2 3 0.4882921839714013 1
gene 32 1 18 -0.17560984994549989 1
gene 33 18 3 -0.18005726011929368 1
genomeend

genomestart 272
node 1 1
node 2 1
node 3 2
node 16 3
gene 1 1 3 0.4090814150397496 1
gene 2 2 3 -0.5797216858117342 1
gene 28 2 16 -0.9185718048761787 1
gene 29 16 3 0.5496982597766527 0
genomeend

genomestart 273
node 1 1
node 2 1
node 3 2
gene 1 1 3 -0.09541347074477313 1
gene 2 2 3 -0.06628816860336284 1
gene 3 3 3 -0.38930289379097993 1
genomeend

genomestart 274
node 1 1
node 2 1
node 3 2
gene 1 1 3 0.801538372765629 1
gene 2 2 3 0.14718186275686762 0
gene 3 3 3 0.7559965477510664 1
genomeend

genomestart 275
node 1 1
node 2 1
node 3 2
node 16 3
gene 1 1 3 0.6267697553318429 1
gene 2 2 3 -0.09235944628355575 0
gene 28 2 16 -0.9185718048761787 1
gene 29 16 3 0.5496982597766527 0
genomeend

genomestart 276
node 1 1
node 2 1
node 3 2
gene 1 1 3 -0.03395509918063022 1
gene 2 2 3 0.5540343520223808 1
genomeend

genomestart 277
node 1 1
node 2 1
node 3 2
node 5 3
gene 1 1 3 -0.5612914748270683 0
gene 2 2 3 0.10287295256215467 1
gene 6 1 5 0.21010405948049138 1
gene 7 5 3 -0.7712508465094097 0
gene 76 5 5 -0.22252308633688 1
genomeend

genomestart 278
node 1 1
node 2 1
node 3 2
node 18 3
gene 1 1 3 0.46275561809676913 0
gene 2 2 3 -0.6986829789926302 1
gene 32 1 18 -0.17560984994549989 1
gene 33 18 3 -0.18005726011929368 1
genomeend

genomestart 279
node 1 1
node 2 1
node 3 2
gene 1 1 3 -0.16138315128310765 1
gene 2 2 3 -0.4905109826726376 1
gene 3 3 3 -0.13919677746171844 1
genomeend

genomestart 280
node 1 1
node 2 1
node 3 2
gene 1 1 3 0.7974885832682097 1
gene 2 2 3 -0.4507127704905457 1
gene 3 3 3 0.38795770851664646 1
genomeend

genomestart 281
node 1 1
node 2 1
node 3 2
gene 1 1 3 0.04239846569741346 1
gene 2 2 3 0.9644563397007695 1
gene 3 3 3 0.2549297524169786 1
genomeend

genomestart 282
node 1 1
node 2 1
node 3 2
gene 1 1 3 0.4846653024485834 1
gene 2 2 3 -0.12844173360008815 1
gene 3 3 3 -0.4615127930031683 1
genomeend

genomestart 283
node 1 1
node 2 1
node 3 2
node 12 3
gene 1 1 3 -0.18672135303754944 1
gene 2 2 3 -0.01357174039285991 0
gene 20 2 12 0.03641353973474204 0
gene 21 12 3 0.35078587317407395 1
genomeend

genomestart 284
node 1 1
node 2 1
node 3 2
node 12 3
gene 1 1 3 0.3135802786201177 1
gene 2 2 3 0.7365402034606322 1
gene 3 3 3 -0.6390635183608305 1
gene 20 2 12 0.03641353973474204 0
gene 21 12 3 0.35078587317407395 1
genomeend

genomestart 285
node 1 1
node 2 1
node 3 2
gene 1 1 3 -0.23579275406594002 1
gene 2 2 3 0.1481651128491932 1
genomeend

genomestart 286
node 1 1
node 2 1
node 3 2
node 10 3
node 37 3
gene 1 1 3 0.6485503093361763 1
gene 2 2 3 -0.3218038055118738 0
gene 16 2 10 -0.17390643692863295 0
gene 17 10 3 -0.7460775491135377 1
gene 77 10 10 0.8084474383154607 1
gene 78 2 37 1.0 1
gene 79 37 10 -0.17390643692863295 1
genomeend

genomestart 287
node 1 1
node 2 1
node 3 2
gene 1 1 3 0.9313826911182388 1
gene 2 2 3 -0.39087825339894966 1
gene 3 3 3 -0.3232700807966612 1
genomeend

genomestart 288
node 1 1
node 2 1
node 3 2
gene 1 1 3 0.4823161529245149 1
gene 2 2 3 -0.8386780948891888 1
gene 3 3 3 0.5290353733281519 1
genomeend

genomestart 289
node 1 1
node 2 1
node 3 2
gene 1 1 3 0.8038523415897372 1
gene 2 2 3 -0.32084904583914164 1
gene 3 3 3 -0.6951612427755643 1
genomeend

genomestart 290
node 1 1
node 2 1
node 3 2
node 38 3
gene 1 1 3 0.5636773555219069 1
gene 2 2 3 -0.3525218287344174 0
gene 80 2 38 1.0 1
gene 81 38 3 -0.3525218287344174 1
genomeend

genomestart 291
node 1 1
node 2 1
node 3 2
gene 1 1 3 -0.4145595401719424 0
gene 2 2 3 0.4379877576822967 1
genomeend

genomestart 292
node 1 1
node 2 1
node 3 2
gene 1 1 3 0.9723787173156612 1
gene 2 2 3 0.6898289975408994 1
gene 3 3 3 0.013676832016168539 1
genomeend

genomestart 293
node 1 1
node 2 1
node 3 2
gene 1 1 3 0.5428726568501232 1
gene 2 2 3 -0.13013521224830293 1
gene 3 3 3 -0.35432482915737074 1
genomeend

genomestart 294
node 1 1
node 2 1
node 3 2
node 39 3
gene 1 1 3 0.4761776857729586 1
gene 2 2 3 0.7172489946274176 0
gene 82 2 39 1.0 1
gene 83 39 3 0.7172489946274176 1
genomeend

genomestart 295
node 1 1
node 2 1
node 3 2
node 19 3
gene 1 1 3 -0.40707590857138665 1
gene 2 2 3 -0.049725347720230406 0
gene 34 2 19 1.0 1
gene 35 19 3 -0.049725347720230406 1
genomeend

genomestart 296
node 1 1
node 2 1
node 3 2
gene 1 1 3 -0.7969795518947321 1
gene 2 2 3 0.621047368801829 1
gene 3 3 3 0.27550629633930257 1
genomeend

genomestart 297
node 1 1
node 2 1
node 3 2
gene 1 1 3 0.5475906237375716 1
gene 2 2 3 -0.2598064070684648 1
genomeend

genomestart 298
node 1 1
node 2 1
node 3 2
gene 1 1 3 -0.34377341292448715 1
gene 2 2 3 -0.07183848048789165 1
genomeend

genomestart 299
node 1 1
node 2 1
node 3 2
node 14 3
gene 1 1 3 0.15017585015520463 1
gene 2 2 3 0.015169734486502384 0
gene 24 2 14 0.9779779430828985 1
gene 25 14 3 0.8962199183117697 0
genomeend

genomestart 300
node 1 1
node 2 1
node 3 2
gene 1 1 3 0.1465857681502244 1
gene 2 2 3 0.18386987009686662 1
genomeend

genomestart 301
node 1 1
node 2 1
node 3 2
gene 1 1 3 0.7337458850458402 0
gene 2 2 3 -0.49069800514198836 1
gene 3 3 3 -0.5953832896773805 1
genomeend

genomestart 302
node 1 1
node 2 1
node 3 2
gene 1 1 3 -0.12404086469471731 1
gene 2 2 3 0.614627420435513 0
gene 3 3 3 0.03447264656204996 1
genomeend

genomestart 303
node 1 1
node 2 1
node 3 2
node 35 3
gene 1 1 3 -0.08754972951835616 1
gene 2 2 3 -0.888069318026433 1
gene 3 3 3 -0.38335762986584265 0
gene 72 3 35 -0.7993552916325982 0
gene 73 35 3 0.8004751738880034 0
genomeend

genomestart 304
node 1 1
node 2 1
node 3 2
gene 1 1 3 0.10099375053176651 1
gene 2 2 3 0.7065783259046414 0
gene 3 3 3 -0.241484972338469 1
genomeend

genomestart 305
node 1 1
node 2 1
node 3 2
node 31 3
gene 1 1 3 0.15785065902225792 0
gene 2 2 3 -0.7911333923202362 0
gene 3 3 3 -0.4615127930031683 1
gene 61 2 31 0.8408968498712691 1
gene 62 31 3 -0.3922751500343047 1
genomeend

genomestart 306
node 1 1
node 2 1
node 3 2
node 6 3
node 40 3
gene 1 1 3 -0.8846581064760423 1
gene 2 2 3 -0.6462747549190656 0
gene 3 3 3 -0.40450318590468415 0
gene 8 3 6 0.288600219510481 0
gene 9 6 3 0.06944139665544058 1
gene 42 2 6 -0.06467713005210984 0
gene 84 6 6 0.48095929737507537 1
gene 85 2 40 0.5450758988281199 1
gene 86 40 6 0.7295985557983042 1
genomeend

genomestart 307
node 1 1
node 2 1
node 3 2
node 8 3
gene 1 1 3 0.904979460363065 1
gene 2 2 3 0.4201013208106721 1
gene 3 3 3 0.8459569668609901 1
gene 12 2 8 -0.9767802624189866 0
gene 13 8 3 0.4139220212502479 1
genomeend

genomestart 308
node 1 1
node 2 1
node 3 2
node 8 3
gene 1 1 3 0.3695823325851284 1
gene 2 2 3 0.3142692362392321 0
gene 3 3 3 -0.9854501943125427 1
gene 12 2 8 -0.9767802624189866 0
gene 13 8 3 0.4139220212502479 1
genomeend

genomestart 309
node 1 1
node 2 1
node 3 2
gene 1 1 3 0.7984295565672526 1
gene 2 2 3 0.9751404723328604 1
gene 3 3 3 -0.581037640997159 0
genomeend

genomestart 310
node 1 1
node 2 1
node 3 2
gene 1 1 3 0.30292244670062096 1
gene 2 2 3 0.6147671943411348 1
gene 3 3 3 0.5470826131510681 1
genomeend

genomestart 311
node 1 1
node 2 1
node 3 2
node 29 3
node 41 3
gene 1 1 3 -0.529794849331979 1
gene 2 2 3 -0.5747179981158386 0
gene 3 3 3 0.49593861554286445 0
gene 57 2 29 -0.4493369068261277 0
gene 58 29 3 0.7549268479923714 1
gene 87 3 41 0.4133636175967521 0
gene 88 41 3 0.10682002949469471 0
genomeend

genomestart 312
node 1 1
node 2 1
node 3 2
gene 1 1 3 -0.30775932199861256 1
gene 2 2 3 -0.9824822125202685 1
gene 3 3 3 -0.08120492398197987 1
genomeend

genomestart 313
node 1 1
node 2 1
node 3 2
gene 1 1 3 0.30056559257430504 0
gene 2 2 3 -0.49069800514198836 1
gene 3 3 3 -0.5953832896773805 1
genomeend

genomestart 314
node 1 1
node 2 1
node 3 2
gene 1 1 3 0.986338278691594 1
gene 2 2 3 -0.6931375624794944 0
gene 3 3 3 -0.9934212350651038 0
genomeend

genomestart 315
node 1 1
node 2 1
node 3 2
gene 1 1 3 0.011495246181315255 1
gene 2 2 3 -0.5244435420077577 1
gene 3 3 3 0.25991661125693577 1
genomeend

genomestart 316
node 1 1
node 2 1
node 3 2
node 42 3
gene 1 1 3 -0.6143087111988229 0
gene 2 2 3 0.5970540995231532 1
gene 3 3 3 -0.5953832896773805 1
gene 89 1 42 -0.8128801241712162 1
gene 90 42 3 0.8718713137376125 1
genomeend

genomestart 317
node 1 1
node 2 1
node 3 2
gene 1 1 3 -0.7073138604354908 1
gene 2 2 3 -0.08106588433135498 1
gene 3 3 3 -0.2441885247223068 1
genomeend

genomestart 318
node 1 1
node 2 1
node 3 2
node 35 3
node 43 3
gene 1 1 3 0.9594332082696797 1
gene 2 2 3 0.10585676568172475 1
gene 3 3 3 -0.5387806968249499 0
gene 72 3 35 -0.7993552916325982 0
gene 73 35 3 0.8004751738880034 0
gene 91 1 35 0.3976744424547285 1
gene 92 3 43 1.0 1
gene 93 43 35 -0.2923704622264157 1
genomeend

genomestart 319
node 1 1
node 2 1
node 3 2
gene 1 1 3 0.9698687848471953 1
gene 2 2 3 -0.8619796176423119 0
gene 3 3 3 -0.5532342425265885 1
genomeend

genomestart 320
node 1 1
node 2 1
node 3 2
node 6 3
node 44 3
gene 1 1 3 -0.014329226038150567 1
gene 2 2 3 0.2391601387597444 1
gene 3 3 3 0.1448612399015119 0
gene 8 3 6 0.288600219510481 0
gene 9 6 3 0.06944139665544058 1
gene 42 2 6 -0.06467713005210984 0
gene 94 3 44 0.507668216122366 1
gene 95 44 6 0.8082699237210499 1
genomeend

genomestart 321
node 1 1
node 2 1
node 3 2
gene 1 1 3 0.30292244670062096 1
gene 2 2 3 0.21400560672313673 1
gene 3 3 3 0.5470826131510681 1
genomeend

genomestart 322
node 1 1
node 2 1
node 3 2
gene 1 1 3 0.37489383101555906 1
gene 2 2 3 -0.8619796176423119 1
gene 3 3 3 -0.06820771269319759 1
genomeend

genomestart 323
node 1 1
node 2 1
node 3 2
gene 1 1 3 0.33303838959176335 1
gene 2 2 3 0.9382463322621297 1
gene 3 3 3 0.9580237450751199 1
genomeend

genomestart 324
node 1 1
node 2 1
node 3 2
node 6 3
gene 1 1 3 -0.2421252220319039 1
gene 2 2 3 -0.9537066590148643 0
gene 3 3 3 -0.8901414718595213 1
gene 8 3 6 0.288600219510481 0
gene 9 6 3 0.06944139665544058 1
genomeend

genomestart 325
node 1 1
node 2 1
node 3 2
gene 1 1 3 -0.23841792485318647 1
gene 2 2 3 0.43544450036485816 1
gene 3 3 3 -0.6316606953942107 1
genomeend

genomestart 326
node 1 1
node 2 1
node 3 2
gene 1 1 3 0.06777142474915876 1
gene 2 2 3 -0.253741368520497 1
gene 3 3 3 0.7143138767355341 0
genomeend

genomestart 327
node 1 1
node 2 1
node 3 2
node 35 3
gene 1 1 3 0.5888696400889828 1
gene 2 2 3 -0.3220851861816564 1
gene 3 3 3 0.9499825057256566 1
gene 72 3 35 -0.7993552916325982 0
gene 73 35 3 0.8004751738880034 0
gene 91 1 35 0.843475356477954 1
genomeend

genomestart 328
node 1 1
node 2 1
node 3 2
gene 1 1 3 -0.5958639980054319 1
gene 2 2 3 0.18135734146189952 0
gene 3 3 3 -0.3318387390461601 1
genomeend

genomestart 329
node 1 1
node 2 1
node 3 2
gene 1 1 3 0.21370929520569193 0
gene 2 2 3 -0.6124778749394572 0
gene 3 3 3 0.8015786267230539 1
genomeend

genomestart 330
node 1 1
node 2 1
node 3 2
gene 1 1 3 0.462453206862509 1
gene 2 2 3 -0.8374018462463406 0
gene 3 3 3 -0.4360905722274223 0
genomeend

genomestart 331
node 1 1
node 2 1
node 3 2
node 35 3
gene 1 1 3 0.7189938526538914 1
gene 2 2 3 0.6059577551311689 1
gene 3 3 3 0.38124848848702575 0
gene 72 3 35 -0.7993552916325982 0
gene 73 35 3 0.8004751738880034 0
gene 91 1 35 0.08332971978889925 1
genomeend

genomestart 332
node 1 1
node 2 1
node 3 2
gene 1 1 3 0.1935279935941253 1
gene 2 2 3 0.7289325132664219 1
gene 3 3 3 0.3891599265726623 1
genomeend

genomestart 333
node 1 1
node 2 1
node 3 2
gene 1 1 3 -0.23079527607352002 1
gene 2 2 3 -0.7432904793099337 0
gene 3 3 3 -0.6604012818711565 1
genomeend

genomestart 334
node 1 1
node 2 1
node 3 2
gene 1 1 3 0.6814362739002656 1
gene 2 2 3 -0.29075912223038436 1
gene 3 3 3 0.2637397037396533 0
genomeend

genomestart 335
node 1 1
node 2 1
node 3 2
gene 1 1 3 0.2764742442147643 1
gene 2 2 3 0.4237575460111672 0
gene 3 3 3 -0.9139387737871904 1
genomeend

genomestart 336
node 1 1
node 2 1
node 3 2
node 45 3
gene 1 1 3 -0.9892052565395529 1
gene 2 2 3 -0.9313042587805497 1
gene 3 3 3 0.4997769416107102 0
gene 96 3 45 1.0 1
gene 97 45 3 0.4997769416107102 1
genomeend

genomestart 337
node 1 1
node 2 1
node 3 2
node 26 3
gene 1 1 3 -0.14139298939295453 1
gene 2 2 3 -0.2848411285767608 0
gene 50 2 26 -0.059656110817169705 1
gene 51 26 3 -0.02502194262226598 1
genomeend

genomestart 338
node 1 1
node 2 1
node 3 2
gene 1 1 3 0.17649575256675432 1
gene 2 2 3 0.03657474450193943 1
gene 3 3 3 0.6868498977318933 1
genomeend

genomestart 339
node 1 1
node 2 1
node 3 2
node 11 3
gene 1 1 3 -0.7298486231143576 0
gene 2 2 3 -0.2923359203446554 0
gene 18 1 11 0.4332049836270314 1
gene 19 11 3 0.32764781668476406 1
genomeend

genomestart 340
node 1 1
node 2 1
node 3 2
node 16 3
gene 1 1 3 -0.9573479470635434 1
gene 2 2 3 0.1057315501925361 0
gene 28 2 16 -0.9185718048761787 1
gene 29 16 3 0.5496982597766527 0
genomeend

genomestart 341
node 1 1
node 2 1
node 3 2
node 46 3
gene 1 1 3 0.5855327195142105 1
gene 2 2 3 0.5509841402760306 0
gene 98 2 46 1.0 1
gene 99 46 3 0.5509841402760306 1
genomeend

genomestart 342
node 1 1
node 2 1
node 3 2
gene 1 1 3 0.6580969869666976 1
gene 2 2 3 -0.578910374685653 1
genomeend

genomestart 343
node 1 1
node 2 1
node 3 2
gene 1 1 3 0.5698413010339682 1
gene 2 2 3 0.12147084534207975 1
gene 3 3 3 -0.5606483045796088 1
genomeend

genomestart 344
node 1 1
node 2 1
node 3 2
node 16 3
gene 1 1 3 0.24489105358705676 1
gene 2 2 3 -0.06533514064018409 1
gene 28 2 16 -0.9185718048761787 1
gene 29 16 3 0.5496982597766527 0
genomeend

genomestart 345
node 1 1
node 2 1
node 3 2
node 11 3
gene 1 1 3 -0.45284316026345894 1
gene 2 2 3 -0.6236398835323578 1
gene 18 1 11 0.4332049836270314 1
gene 19 11 3 0.32764781668476406 1
genomeend

genomestart 346
node 1 1
node 2 1
node 3 2
node 16 3
node 47 3
gene 1 1 3 -0.9526026556097379 1
gene 2 2 3 0.6315949996036522 1
gene 28 2 16 -0.9185718048761787 1
gene 29 16 3 0.5496982597766527 0
gene 100 1 16 0.9275792139451645 1
gene 101 16 47 0.025264273290870887 1
gene 102 47 3 -0.4499008617233591 1
genomeend

genomestart 347
node 1 1
node 2 1
node 3 2
gene 1 1 3 -0.9951212674256482 1
gene 2 2 3 -0.2946101046185752 1
genomeend

genomestart 348
node 1 1
node 2 1
node 3 2
node 16 3
gene 1 1 3 -0.034672733695389146 1
gene 2 2 3 0.8237906144165688 1
gene 28 2 16 -0.9185718048761787 1
gene 29 16 3 0.5496982597766527 0
genomeend

genomestart 349
node 1 1
node 2 1
node 3 2
gene 1 1 3 -0.980549840053221 1
gene 2 2 3 -0.6844220771538848 0
genomeend

genomestart 350
node 1 1
node 2 1
node 3 2
gene 1 1 3 -0.8207970301303988 1
gene 2 2 3 -0.7788111736586535 1
gene 3 3 3 0.8386386588307422 1
genomeend

genomestart 351
node 1 1
node 2 1
node 3 2
gene 1 1 3 0.5406394795117826 1
gene 2 2 3 0.4114768543994197 1
genomeend

genomestart 352
node 1 1
node 2 1
node 3 2
node 14 3
node 48 3
gene 1 1 3 0.15017585015520463 1
gene 2 2 3 -0.4742653277998493 0
gene 24 2 14 0.9779779430828985 1
gene 25 14 3 0.8962199183117697 0
gene 103 14 48 0.9182709525245502 1
gene 104 48 3 -0.5984495855886451 1
genomeend

genomestart 353
node 1 1
node 2 1
node 3 2
node 20 3
gene 1 1 3 0.9100493149857257 1
gene 2 2 3 0.18375629669400817 1
gene 36 2 20 -0.07957862776080504 1
gene 37 20 3 0.3575657673666478 1
genomeend

genomestart 354
node 1 1
node 2 1
node 3 2
gene 1 1 3 0.265362553425062 1
gene 2 2 3 -0.01317184141666261 1
genomeend

genomestart 355
node 1 1
node 2 1
node 3 2
gene 1 1 3 -0.09189145506870033 1
gene 2 2 3 -0.24442036766191277 1
gene 3 3 3 0.6527373210377906 1
genomeend

genomestart 356
node 1 1
node 2 1
node 3 2
node 16 3
gene 1 1 3 -0.5301826655187629 1
gene 2 2 3 0.1527515684873043 0
gene 28 2 16 -0.9185718048761787 1
gene 29 16 3 0.5496982597766527 0
genomeend

genomestart 357
node 1 1
node 2 1
node 3 2
gene 1 1 3 0.03727604134703599 1
gene 2 2 3 0.3273612256744839 0
genomeend

genomestart 358
node 1 1
node 2 1
node 3 2
node 14 3
gene 1 1 3 0.26515886609893013 1
gene 2 2 3 0.9329638573259631 0
gene 24 2 14 0.9779779430828985 1
gene 25 14 3 0.8962199183117697 0
genomeend

genomestart 359
node 1 1
node 2 1
node 3 2
node 20 3
gene 1 1 3 -0.5817138359778419 0
gene 2 2 3 0.2939946000143081 1
gene 36 2 20 -0.7628049519006728 0
gene 37 20 3 -0.931491459950236 0
genomeend

genomestart 360
node 1 1
node 2 1
node 3 2
node 26 3
node 49 3
gene 1 1 3 0.7066461507644114 1
gene 2 2 3 0.0736606039676202 0
gene 50 2 26 0.8842277441967353 0
gene 51 26 3 0.6187111629056723 1
gene 105 2 49 1.0 1
gene 106 49 26 0.8842277441967353 1
genomeend

genomestart 361
node 1 1
node 2 1
node 3 2
node 25 3
gene 1 1 3 -0.7002525140177783 1
gene 2 2 3 -0.5519448590116687 0
gene 47 2 25 1.0 1
gene 48 25 3 -0.5519448590116687 1
genomeend

genomestart 362
node 1 1
node 2 1
node 3 2
gene 1 1 3 0.019088418995910628 1
gene 2 2 3 0.5509841402760306 0
genomeend

genomestart 363
node 1 1
node 2 1
node 3 2
node 14 3
gene 1 1 3 0.15017585015520463 1
gene 2 2 3 0.14718186275686762 0
gene 24 2 14 0.9779779430828985 1
gene 25 14 3 0.8962199183117697 0
genomeend

genomestart 364
node 1 1
node 2 1
node 3 2
node 20 3
node 50 3
gene 1 1 3 -0.6775742514128521 1
gene 2 2 3 -0.21023523687204515 0
gene 36 2 20 -0.7628049519006728 0
gene 37 20 3 -0.931491459950236 0
gene 107 2 50 0.07428853371986355 0
gene 108 50 3 -0.7760123628693373 0
genomeend

genomestart 365
node 1 1
node 2 1
node 3 2
gene 1 1 3 -0.007686675528833953 1
gene 2 2 3 0.7838781115440395 0
genomeend

genomestart 366
node 1 1
node 2 1
node 3 2
gene 1 1 3 0.6600453730074506 0
gene 2 2 3 0.7160428991480532 0
genomeend

genomestart 367
node 1 1
node 2 1
node 3 2
node 11 3
gene 1 1 3 0.8822900216356584 0
gene 2 2 3 0.07023859017868261 1
gene 18 1 11 0.4332049836270314 1
gene 19 11 3 0.32764781668476406 1
gene 49 11 11 -0.26179259422614476 1
genomeend

genomestart 368
node 1 1
node 2 1
node 3 2
node 17 3
gene 1 1 3 0.4690348481936363 1
gene 2 2 3 -0.6157914927847167 1
gene 30 2 17 -0.8557959065735388 1
gene 31 17 3 0.576616630124961 1
gene 66 1 17 -0.22049463334254205 0
genomeend

genomestart 369
node 1 1
node 2 1
node 3 2
node 11 3
gene 1 1 3 0.5975628555064072 1
gene 2 2 3 0.26297767536658323 0
gene 18 1 11 0.4332049836270314 1
gene 19 11 3 0.32764781668476406 1
gene 49 11 11 -0.26179259422614476 1
genomeend

genomestart 370
node 1 1
node 2 1
node 3 2
node 22 3
gene 1 1 3 -0.2821385426835521 1
gene 2 2 3 -0.7370580085504522 0
gene 40 2 22 0.1124124737923673 0
gene 41 22 3 -0.7696820044440492 1
genomeend

genomestart 371
node 1 1
node 2 1
node 3 2
node 17 3
gene 1 1 3 0.22449007062216653 1
gene 2 2 3 0.3827441880268313 0
gene 30 2 17 -0.6685117376765621 1
gene 31 17 3 0.6020730347597387 1
gene 66 1 17 -0.3436588142364849 1
genomeend

genomestart 372
node 1 1
node 2 1
node 3 2
node 4 3
gene 1 1 3 0.9991266712958357 1
gene 2 2 3 -0.7089752546922291 0
gene 3 3 3 -0.08884349041910289 1
gene 4 1 4 0.9131105828342367 1
gene 5 4 3 0.7096551474979647 1
gene 65 2 4 -0.9691022772744087 1
genomeend

genomestart 373
node 1 1
node 2 1
node 3 2
node 4 3
gene 1 1 3 -0.060124148331306526 1
gene 2 2 3 0.06582391515195607 0
gene 4 1 4 0.9131105828342367 1
gene 5 4 3 0.7096551474979647 1
gene 65 2 4 -0.9691022772744087 1
genomeend

genomestart 374
node 1 1
node 2 1
node 3 2
node 22 3
gene 1 1 3 -0.6352719555158478 0
gene 2 2 3 0.9936793566258029 1
gene 40 2 22 0.1124124737923673 0
gene 41 22 3 -0.7696820044440492 1
genomeend

genomestart 375
node 1 1
node 2 1
node 3 2
node 22 3
node 51 3
gene 1 1 3 -0.20889556105639606 1
gene 2 2 3 0.04875234991375177 0
gene 40 2 22 0.1124124737923673 0
gene 41 22 3 -0.7696820044440492 1
gene 109 1 22 0.9482924305813732 1
gene 110 2 51 1.0 1
gene 111 51 22 -0.4702686729295946 1
genomeend

genomestart 376
node 1 1
node 2 1
node 3 2
node 4 3
gene 1 1 3 0.7639473734441177 1
gene 2 2 3 -0.1602733465855528 0
gene 4 1 4 0.9131105828342367 1
gene 5 4 3 0.7096551474979647 1
gene 65 2 4 -0.9691022772744087 1
genomeend

genomestart 377
node 1 1
node 2 1
node 3 2
node 4 3
gene 1 1 3 0.9991266712958357 1
gene 2 2 3 -0.7089752546922291 1
gene 4 1 4 0.622576043925456 0
gene 5 4 3 0.4689728573326627 0
gene 65 2 4 0.8538086483998437 0
genomeend

genomestart 378
node 1 1
node 2 1
node 3 2
node 12 3
node 28 3
gene 1 1 3 -0.08515555563640809 1
gene 2 2 3 0.04875234991375177 0
gene 20 2 12 0.03641353973474204 0
gene 21 12 3 0.35078587317407395 1
gene 54 1 12 -0.9414154072809842 1
gene 55 2 28 0.2219789301013121 1
gene 56 28 12 -0.9345395899158273 1
gene 112 12 28 -0.7204459360372354 1
genomeend

genomestart 379
node 1 1
node 2 1
node 3 2
node 12 3
gene 1 1 3 -0.7178292995618328 1
gene 2 2 3 0.8212667248133723 1
gene 20 2 12 0.03641353973474204 0
gene 21 12 3 0.35078587317407395 1
genomeend

genomestart 380
node 1 1
node 2 1
node 3 2
node 12 3
node 28 3
gene 1 1 3 0.3709091811532582 1
gene 2 2 3 -0.24139724504894922 0
gene 20 2 12 0.6239797353205725 0
gene 21 12 3 0.741831990052718 1
gene 54 1 12 -0.9414154072809842 1
gene 55 2 28 0.2219789301013121 1
gene 56 28 12 -0.9345395899158273 1
genomeend

genomestart 381
node 1 1
node 2 1
node 3 2
node 22 3
gene 1 1 3 -0.20889556105639606 0
gene 2 2 3 0.7873276311440912 1
gene 40 2 22 0.1124124737923673 0
gene 41 22 3 -0.7696820044440492 1
genomeend

genomestart 382
node 1 1
node 2 1
node 3 2
node 22 3
gene 1 1 3 0.2521198256948576 0
gene 2 2 3 -0.9825657732017304 0
gene 40 2 22 0.1124124737923673 0
gene 41 22 3 -0.7696820044440492 1
genomeend

genomestart 383
node 1 1
node 2 1
node 3 2
node 17 3
node 52 3
gene 1 1 3 -0.4067105293529657 1
gene 2 2 3 -0.6662527598784362 0
gene 3 3 3 -0.6526199056979096 0
gene 30 2 17 -0.8557959065735388 1
gene 31 17 3 0.576616630124961 1
gene 66 1 17 -0.22049463334254205 0
gene 113 3 52 1.0 1
gene 114 52 3 -0.6526199056979096 1
genomeend

genomestart 384
node 1 1
node 2 1
node 3 2
node 12 3
node 28 3
gene 1 1 3 -0.9550821963248123 1
gene 2 2 3 -0.18594660238979555 0
gene 20 2 12 0.03641353973474204 0
gene 21 12 3 0.35078587317407395 1
gene 54 1 12 -0.9414154072809842 1
gene 55 2 28 0.2219789301013121 1
gene 56 28 12 -0.9345395899158273 1
genomeend

genomestart 385
node 1 1
node 2 1
node 3 2
node 11 3
node 53 3
gene 1 1 3 -0.7416026770417308 0
gene 2 2 3 -0.20456930685269603 0
gene 18 1 11 0.4332049836270314 1
gene 19 11 3 0.32764781668476406 1
gene 49 11 11 -0.26179259422614476 1
gene 115 2 53 1.0 1
gene 116 53 3 -0.20456930685269603 1
genomeend

genomestart 386
node 1 1
node 2 1
node 3 2
node 4 3
gene 1 1 3 -0.18923675162601072 1
gene 2 2 3 -0.09123706024662526 0
gene 4 1 4 0.9131105828342367 1
gene 5 4 3 0.7096551474979647 1
gene 65 2 4 -0.9691022772744087 1
genomeend

genomestart 387
node 1 1
node 2 1
node 3 2
node 11 3
gene 1 1 3 0.41439645450361273 0
gene 2 2 3 0.9280684641919327 0
gene 18 1 11 0.4332049836270314 1
gene 19 11 3 0.32764781668476406 1
gene 49 11 11 -0.26179259422614476 1
genomeend

genomestart 388
node 1 1
node 2 1
node 3 2
node 22 3
gene 1 1 3 -0.8127335835412015 1
gene 2 2 3 0.04875234991375177 1
gene 40 2 22 0.1124124737923673 0
gene 41 22 3 -0.7696820044440492 1
genomeend

genomestart 389
node 1 1
node 2 1
node 3 2
node 4 3
gene 1 1 3 0.9991266712958357 0
gene 2 2 3 -0.7089752546922291 1
gene 4 1 4 0.9131105828342367 1
gene 5 4 3 0.7096551474979647 1
gene 65 2 4 -0.9691022772744087 1
genomeend

genomestart 390
node 1 1
node 2 1
node 3 2
node 12 3
node 28 3
gene 1 1 3 -0.9550821963248123 1
gene 2 2 3 0.04875234991375177 0
gene 20 2 12 0.03641353973474204 0
gene 21 12 3 0.35078587317407395 1
gene 54 1 12 -0.9414154072809842 1
gene 55 2 28 0.2219789301013121 1
gene 56 28 12 -0.9345395899158273 1
genomeend

genomestart 391
node 1 1
node 2 1
node 3 2
node 12 3
gene 1 1 3 -0.7178292995618328 1
gene 2 2 3 0.8067975699272327 0
gene 20 2 12 0.03641353973474204 0
gene 21 12 3 0.805422959645176 1
genomeend

genomestart 392
node 1 1
node 2 1
node 3 2
node 4 3
node 54 3
gene 1 1 3 0.1748548623961914 1
gene 2 2 3 0.14841928795936865 0
gene 3 3 3 -0.29427644373194983 1
gene 4 1 4 0.9131105828342367 1
gene 5 4 3 0.7096551474979647 1
gene 65 2 4 -0.9691022772744087 1
gene 117 2 54 1.0 1
gene 118 54 3 0.14841928795936865 1
genomeend

genomestart 393
node 1 1
node 2 1
node 3 2
node 17 3
gene 1 1 3 -0.8317716844972495 1
gene 2 2 3 -0.9882584192477532 0
gene 30 2 17 -0.8557959065735388 1
gene 31 17 3 0.576616630124961 1
gene 66 1 17 -0.22049463334254205 0
genomeend

genomestart 394
node 1 1
node 2 1
node 3 2
node 17 3
gene 1 1 3 -0.4965598050196681 1
gene 2 2 3 0.5710857580805405 0
gene 30 2 17 0.8051995060235381 1
gene 31 17 3 0.7142729128453115 1
gene 66 1 17 -0.869858320673796 1
genomeend

genomestart 395
node 1 1
node 2 1
node 3 2
node 11 3
gene 1 1 3 0.9360719669706037 0
gene 2 2 3 0.5198475381869114 1
gene 18 1 11 0.4332049836270314 1
gene 19 11 3 0.32764781668476406 1
gene 49 11 11 -0.26179259422614476 1
genomeend

genomestart 396
node 1 1
node 2 1
node 3 2
node 17 3
gene 1 1 3 0.7054027675587552 1
gene 2 2 3 -0.9387338271244762 0
gene 30 2 17 -0.8557959065735388 1
gene 31 17 3 0.576616630124961 1
gene 66 1 17 -0.22049463334254205 0
gene 119 3 17 0.9623310676570487 1
genomeend

genomestart 397
node 1 1
node 2 1
node 3 2
node 12 3
node 28 3
gene 1 1 3 -0.4849209661970131 1
gene 2 2 3 -0.7291609234380023 0
gene 20 2 12 0.8928805620070046 0
gene 21 12 3 0.8465298312690432 1
gene 54 1 12 0.002582997762237249 1
gene 55 2 28 -0.11915088119347317 1
gene 56 28 12 -0.9905510491962565 1
gene 120 1 28 0.025550832704801074 1
genomeend

genomestart 398
node 1 1
node 2 1
node 3 2
node 4 3
gene 1 1 3 0.9991266712958357 1
gene 2 2 3 0.32001019776726025 0
gene 4 1 4 0.9131105828342367 1
gene 5 4 3 0.7096551474979647 1
gene 65 2 4 -0.9691022772744087 1
genomeend

genomestart 399
node 1 1
node 2 1
node 3 2
node 17 3
node 55 3
gene 1 1 3 0.8704673280290821 1
gene 2 2 3 -0.14098780628324303 0
gene 30 2 17 -0.8557959065735388 1
gene 31 17 3 0.576616630124961 1
gene 66 1 17 -0.22049463334254205 0
gene 121 1 55 1.0 1
gene 122 55 17 -0.22049463334254205 1
genomeend

genomestart 400
node 1 1
node 2 1
node 3 2
node 11 3
gene 1 1 3 -0.5112160027917085 0
gene 2 2 3 -0.3119459889924099 1
gene 18 1 11 0.4332049836270314 1
gene 19 11 3 0.32764781668476406 1
gene 49 11 11 -0.26179259422614476 1
genomeend

genomestart 401
node 1 1
node 2 1
node 3 2
gene 1 1 3 0.4163730757199591 1
gene 2 2 3 -0.9571396711479554 0
gene 3 3 3 -0.4214733720721128 0
genomeend

genomestart 402
node 1 1
node 2 1
node 3 2
node 6 3
node 44 3
gene 1 1 3 0.7748664143119759 1
gene 2 2 3 -0.6931375624794944 0
gene 3 3 3 -0.14387268590502023 1
gene 8 3 6 0.288600219510481 0
gene 9 6 3 0.06944139665544058 1
gene 42 2 6 -0.06467713005210984 0
gene 84 6 6 0.39696898635357714 1
gene 94 3 44 0.507668216122366 1
gene 95 44 6 0.8082699237210499 1
genomeend

genomestart 403
node 1 1
node 2 1
node 3 2
gene 1 1 3 0.23655867017464416 1
gene 2 2 3 -0.43602298729176303 0
gene 3 3 3 -0.029450123492126945 0
genomeend

genomestart 404
node 1 1
node 2 1
node 3 2
node 29 3
node 41 3
gene 1 1 3 -0.8089724919446858 1
gene 2 2 3 -0.7134785674008861 0
gene 3 3 3 -0.9934212350651038 0
gene 57 2 29 -0.4493369068261277 0
gene 58 29 3 0.7549268479923714 1
gene 87 3 41 0.4133636175967521 0
gene 88 41 3 0.10682002949469471 0
gene 123 1 41 0.9665762169239228 1
genomeend

genomestart 405
node 1 1
node 2 1
node 3 2
gene 1 1 3 0.986338278691594 1
gene 2 2 3 -0.6931375624794944 0
gene 3 3 3 0.5470826131510681 0
genomeend

genomestart 406
node 1 1
node 2 1
node 3 2
node 6 3
node 44 3
gene 1 1 3 0.4305582123245846 1
gene 2 2 3 -0.4856263746071898 1
gene 3 3 3 0.03885395434640482 0
gene 8 3 6 0.9104718522177565 0
gene 9 6 3 0.07073370907297627 1
gene 42 2 6 0.047110380413585506 0
gene 94 3 44 -0.5112212196971679 1
gene 95 44 6 -0.6386520341289813 1
gene 124 44 44 -0.7386676059869767 1
genomeend

genomestart 407
node 1 1
node 2 1
node 3 2
node 29 3
node 41 3
gene 1 1 3 -0.529794849331979 1
gene 2 2 3 -0.5747179981158386 1
gene 3 3 3 0.49593861554286445 0
gene 57 2 29 -0.4493369068261277 0
gene 58 29 3 0.7549268479923714 1
gene 87 3 41 0.4133636175967521 0
gene 88 41 3 0.10682002949469471 0
gene 125 29 29 0.6323780063348714 1
genomeend

genomestart 408
node 1 1
node 2 1
node 3 2
gene 1 1 3 0.986338278691594 1
gene 2 2 3 -0.7748732949152873 0
gene 3 3 3 -0.5798934561590955 0
genomeend

genomestart 409
node 1 1
node 2 1
node 3 2
node 29 3
node 41 3
gene 1 1 3 -0.529794849331979 1
gene 2 2 3 -0.5747179981158386 0
gene 3 3 3 -0.18817130836536156 0
gene 57 2 29 -0.4493369068261277 0
gene 58 29 3 0.7549268479923714 1
gene 87 3 41 0.4133636175967521 0
gene 88 41 3 0.10682002949469471 0
genomeend

genomestart 410
node 1 1
node 2 1
node 3 2
gene 1 1 3 0.011495246181315255 1
gene 2 2 3 -0.5244435420077577 1
gene 3 3 3 0.3672673325712347 1
genomeend

genomestart 411
node 1 1
node 2 1
node 3 2
node 29 3
node 41 3
gene 1 1 3 0.7918756023222469 1
gene 2 2 3 0.9121099951732184 0
gene 3 3 3 -0.4954661070476022 0
gene 57 2 29 -0.4493369068261277 0
gene 58 29 3 0.7549268479923714 1
gene 87 3 41 0.4133636175967521 0
gene 88 41 3 0.10682002949469471 0
gene 126 1 29 -0.6781695896676865 1
genomeend

genomestart 412
node 1 1
node 2 1
node 3 2
node 29 3
node 41 3
gene 1 1 3 -0.4525278529166289 1
gene 2 2 3 0.22181822738826162 0
gene 3 3 3 -0.27622822286523696 0
gene 57 2 29 -0.4493369068261277 0
gene 58 29 3 0.7549268479923714 1
gene 87 3 41 0.4133636175967521 0
gene 88 41 3 0.10682002949469471 0
gene 127 2 41 -0.9321226937145668 1
genomeend

genomestart 413
node 1 1
node 2 1
node 3 2
node 6 3
node 44 3
gene 1 1 3 -0.08754972951835616 1
gene 2 2 3 0.2391601387597444 1
gene 3 3 3 0.1448612399015119 0
gene 8 3 6 0.288600219510481 0
gene 9 6 3 0.06944139665544058 1
gene 42 2 6 -0.06467713005210984 0
gene 94 3 44 0.507668216122366 1
gene 95 44 6 0.8082699237210499 1
gene 128 2 44 0.07949031449918287 1
genomeend

genomestart 414
node 1 1
node 2 1
node 3 2
node 6 3
node 44 3
gene 1 1 3 -0.006034134931145685 1
gene 2 2 3 -0.5687861806212834 0
gene 3 3 3 0.8225011753608727 1
gene 8 3 6 0.288600219510481 0
gene 9 6 3 0.06944139665544058 1
gene 42 2 6 -0.06467713005210984 0
gene 94 3 44 0.507668216122366 1
gene 95 44 6 0.8082699237210499 1
genomeend

genomestart 415
node 1 1
node 2 1
node 3 2
gene 1 1 3 0.30292244670062096 1
gene 2 2 3 -0.3445836348180199 0
gene 3 3 3 -0.7500574582273886 0
genomeend

genomestart 416
node 1 1
node 2 1
node 3 2
node 29 3
node 41 3
node 56 3
gene 1 1 3 -0.529794849331979 1
gene 2 2 3 0.2862939456232034 0
gene 3 3 3 0.30878852938464907 0
gene 57 2 29 -0.4493369068261277 0
gene 58 29 3 0.7549268479923714 1
gene 87 3 41 0.4133636175967521 0
gene 88 41 3 0.10682002949469471 0
gene 129 2 56 0.8067631409672599 1
gene 130 56 3 0.3030431316958788 1
genomeend

genomestart 417
node 1 1
node 2 1
node 3 2
node 29 3
node 41 3
gene 1 1 3 -0.04701806883016235 1
gene 2 2 3 0.3607440143710191 1
gene 3 3 3 -0.29551536039011717 0
gene 57 2 29 -0.4493369068261277 0
gene 58 29 3 0.7549268479923714 1
gene 87 3 41 0.4133636175967521 0
gene 88 41 3 0.10682002949469471 0
genomeend

genomestart 418
node 1 1
node 2 1
node 3 2
node 35 3
gene 1 1 3 0.36915068597410017 1
gene 2 2 3 -0.5471238605308391 1
gene 3 3 3 -0.5885410275982841 0
gene 72 3 35 -0.7993552916325982 0
gene 73 35 3 0.8004751738880034 0
genomeend

genomestart 419
node 1 1
node 2 1
node 3 2
gene 1 1 3 0.15529055839254668 1
gene 2 2 3 0.6955691523248808 1
gene 3 3 3 0.8572916018618533 0
genomeend

genomestart 420
node 1 1
node 2 1
node 3 2
node 35 3
gene 1 1 3 0.4016699248874932 1
gene 2 2 3 0.4246075208673755 1
gene 3 3 3 -0.41770531638407704 0
gene 72 3 35 -0.7993552916325982 0
gene 73 35 3 0.8004751738880034 0
genomeend

genomestart 421
node 1 1
node 2 1
node 3 2
node 35 3
gene 1 1 3 0.3271763922778038 1
gene 2 2 3 -0.23035376820061726 0
gene 3 3 3 -0.8275472629313 0
gene 72 3 35 -0.7993552916325982 0
gene 73 35 3 0.8004751738880034 0
genomeend

genomestart 422
node 1 1
node 2 1
node 3 2
gene 1 1 3 0.9471487344229661 1
gene 2 2 3 -0.4544147622149477 1
gene 3 3 3 -0.14911551547426738 0
genomeend

genomestart 423
node 1 1
node 2 1
node 3 2
gene 1 1 3 0.986338278691594 1
gene 2 2 3 -0.6931375624794944 0
gene 3 3 3 0.1448612399015119 0
genomeend

genomestart 424
node 1 1
node 2 1
node 3 2
node 29 3
node 41 3
gene 1 1 3 0.8542552354500412 1
gene 2 2 3 0.2391601387597444 0
gene 3 3 3 -0.45153745118693467 0
gene 57 2 29 -0.4493369068261277 0
gene 58 29 3 0.7549268479923714 1
gene 87 3 41 0.4133636175967521 0
gene 88 41 3 0.10682002949469471 0
genomeend

genomestart 425
node 1 1
node 2 1
node 3 2
gene 1 1 3 0.30292244670062096 1
gene 2 2 3 0.971394802936074 1
gene 3 3 3 -0.674396641469348 1
genomeend

genomestart 426
node 1 1
node 2 1
node 3 2
node 35 3
gene 1 1 3 0.08265456659863912 1
gene 2 2 3 0.9078703104596154 1
gene 3 3 3 -0.16172562354290265 1
gene 72 3 35 -0.36226735918291897 0
gene 73 35 3 -0.991152290538172 1
gene 91 1 35 0.21076807392549102 1
genomeend

genomestart 427
node 1 1
node 2 1
node 3 2
gene 1 1 3 0.986338278691594 1
gene 2 2 3 0.2521415364757621 1
gene 3 3 3 0.12699232818987616 0
genomeend

genomestart 428
node 1 1
node 2 1
node 3 2
node 29 3
node 41 3
gene 1 1 3 -0.4307415251743095 1
gene 2 2 3 0.9644790750712482 0
gene 3 3 3 0.9106398007646974 0
gene 57 2 29 -0.4493369068261277 0
gene 58 29 3 0.7549268479923714 1
gene 87 3 41 0.4133636175967521 0
gene 88 41 3 0.10682002949469471 0
genomeend

genomestart 429
node 1 1
node 2 1
node 3 2
gene 1 1 3 0.5726064810712518 1
gene 2 2 3 0.18240238437390732 1
gene 3 3 3 -0.22741913600362995 1
genomeend

genomestart 430
node 1 1
node 2 1
node 3 2
gene 1 1 3 -0.9782501414133137 1
gene 2 2 3 -0.3202332659735859 1
gene 3 3 3 0.25991661125693577 1
genomeend

genomestart 431
node 1 1
node 2 1
node 3 2
gene 1 1 3 -0.7515345072166788 1
gene 2 2 3 0.3645283098244352 0
gene 3 3 3 -0.9321380863343416 0
genomeend

genomestart 432
node 1 1
node 2 1
node 3 2
gene 1 1 3 -0.10991173240981555 1
gene 2 2 3 -0.6854513416524916 1
gene 3 3 3 -0.6198131182859773 1
genomeend

genomestart 433
node 1 1
node 2 1
node 3 2
node 6 3
node 44 3
gene 1 1 3 -0.6024578174968725 1
gene 2 2 3 -0.3185723138951 0
gene 3 3 3 0.41450715937065374 1
gene 8 3 6 0.288600219510481 0
gene 9 6 3 0.06944139665544058 1
gene 42 2 6 -0.06467713005210984 0
gene 94 3 44 0.507668216122366 1
gene 95 44 6 0.8082699237210499 1
genomeend

genomestart 434
node 1 1
node 2 1
node 3 2
gene 1 1 3 -0.5970660253855231 1
gene 2 2 3 -0.8446151834928405 0
gene 3 3 3 0.8163526512321574 1
genomeend

genomestart 435
node 1 1
node 2 1
node 3 2
node 16 3
gene 1 1 3 -0.36058591633540216 1
gene 2 2 3 -0.7490989497904182 0
gene 28 2 16 -0.9185718048761787 1
gene 29 16 3 0.5496982597766527 0
genomeend

genomestart 436
node 1 1
node 2 1
node 3 2
gene 1 1 3 0.2764742442147643 1
gene 2 2 3 0.4237575460111672 0
gene 3 3 3 -0.9139387737871904 1
genomeend

genomestart 437
node 1 1
node 2 1
node 3 2
gene 1 1 3 0.8828136789498522 0
gene 2 2 3 -0.48701037848088713 0
genomeend

genomestart 438
node 1 1
node 2 1
node 3 2
gene 1 1 3 -0.19899506912573273 0
gene 2 2 3 -0.09832957819112353 1
gene 3 3 3 0.05718852266501506 1
genomeend

genomestart 439
node 1 1
node 2 1
node 3 2
gene 1 1 3 0.03727604134703599 1
gene 2 2 3 0.3273612256744839 0
gene 3 3 3 -0.8308095294770301 1
genomeend

genomestart 440
node 1 1
node 2 1
node 3 2
node 4 3
node 57 3
gene 1 1 3 -0.5301826655187629 1
gene 2 2 3 -0.7089752546922291 0
gene 4 1 4 0.622576043925456 0
gene 5 4 3 0.4689728573326627 0
gene 65 2 4 0.8538086483998437 0
gene 131 2 57 0.19534501921561565 1
gene 132 57 4 -0.9847042914214736 0
genomeend

genomestart 441
node 1 1
node 2 1
node 3 2
node 8 3
gene 1 1 3 0.904979460363065 1
gene 2 2 3 0.4201013208106721 0
gene 3 3 3 0.8459569668609901 1
gene 12 2 8 -0.9767802624189866 0
gene 13 8 3 0.4139220212502479 1
genomeend

genomestart 442
node 1 1
node 2 1
node 3 2
gene 1 1 3 0.03727604134703599 0
gene 2 2 3 0.3273612256744839 1
gene 3 3 3 -0.815368538614184 1
genomeend

genomestart 443
node 1 1
node 2 1
node 3 2
node 4 3
gene 1 1 3 0.9817206027943486 1
gene 2 2 3 -0.15266992525591483 1
gene 4 1 4 0.622576043925456 0
gene 5 4 3 0.4689728573326627 0
gene 65 2 4 0.8538086483998437 0
genomeend

genomestart 444
node 1 1
node 2 1
node 3 2
node 26 3
gene 1 1 3 -0.6107171768385864 1
gene 2 2 3 -0.1591476653296251 1
gene 50 2 26 -0.059656110817169705 1
gene 51 26 3 -0.02502194262226598 1
genomeend

genomestart 445
node 1 1
node 2 1
node 3 2
gene 1 1 3 0.6951662066626494 0
gene 2 2 3 0.11908694983182389 1
gene 3 3 3 0.3891599265726623 1
genomeend

genomestart 446
node 1 1
node 2 1
node 3 2
gene 1 1 3 0.10099375053176651 1
gene 2 2 3 0.7065783259046414 0
gene 3 3 3 -0.241484972338469 0
genomeend

genomestart 447
node 1 1
node 2 1
node 3 2
node 20 3
gene 1 1 3 -0.5817138359778419 0
gene 2 2 3 -0.23304193813069618 0
gene 36 2 20 -0.7628049519006728 0
gene 37 20 3 -0.931491459950236 0
genomeend

genomestart 448
node 1 1
node 2 1
node 3 2
node 20 3
gene 1 1 3 0.9100493149857257 0
gene 2 2 3 0.18375629669400817 0
gene 36 2 20 -0.07957862776080504 1
gene 37 20 3 0.3575657673666478 1
genomeend

genomestart 449
node 1 1
node 2 1
node 3 2
node 4 3
gene 1 1 3 -0.2884748995006742 1
gene 2 2 3 -0.7089752546922291 1
gene 4 1 4 0.622576043925456 0
gene 5 4 3 0.4689728573326627 0
gene 65 2 4 0.8538086483998437 0
genomeend

genomestart 450
node 1 1
node 2 1
node 3 2
node 14 3
node 48 3
gene 1 1 3 0.7621105400304654 1
gene 2 2 3 0.7535841459777655 0
gene 24 2 14 0.9779779430828985 1
gene 25 14 3 0.8962199183117697 0
gene 103 14 48 0.9182709525245502 1
gene 104 48 3 -0.5984495855886451 1
genomeend

genomestart 451
node 1 1
node 2 1
node 3 2
node 58 3
gene 1 1 3 -0.9914910035532826 1
gene 2 2 3 -0.24442036766191277 0
gene 3 3 3 -0.14087570125713456 1
gene 133 2 58 -0.9753119254084925 1
gene 134 58 3 -0.10299384382720478 1
genomeend

genomestart 452
node 1 1
node 2 1
node 3 2
node 8 3
gene 1 1 3 0.3695823325851284 1
gene 2 2 3 0.3142692362392321 0
gene 3 3 3 -0.9854501943125427 1
gene 12 2 8 -0.9767802624189866 0
gene 13 8 3 0.4139220212502479 1
genomeend

genomestart 453
node 1 1
node 2 1
node 3 2
node 59 3
gene 1 1 3 0.18767848823268363 0
gene 2 2 3 -0.15632667457169758 1
gene 135 1 59 1.0 1
gene 136 59 3 0.18767848823268363 1
genomeend

genomestart 454
node 1 1
node 2 1
node 3 2
node 20 3
gene 1 1 3 0.5831486422836357 1
gene 2 2 3 -0.4742653277998493 0
gene 36 2 20 -0.07957862776080504 1
gene 37 20 3 0.3575657673666478 1
genomeend

genomestart 455
node 1 1
node 2 1
node 3 2
node 20 3
gene 1 1 3 0.84486274109313 0
gene 2 2 3 0.14612479438770176 1
gene 36 2 20 -0.570659142397 1
gene 37 20 3 -0.28429011371710944 1
genomeend

genomestart 456
node 1 1
node 2 1
node 3 2
node 20 3
node 50 3
gene 1 1 3 -0.6775742514128521 1
gene 2 2 3 -0.21023523687204515 1
gene 36 2 20 -0.7628049519006728 0
gene 37 20 3 -0.931491459950236 0
gene 107 2 50 0.07428853371986355 0
gene 108 50 3 -0.7760123628693373 0
gene 137 20 50 0.5912840264378998 1
genomeend

genomestart 457
node 1 1
node 2 1
node 3 2
gene 1 1 3 -0.09189145506870033 1
gene 2 2 3 -0.5242220960080933 1
gene 3 3 3 -0.3695300206396831 1
genomeend

genomestart 458
node 1 1
node 2 1
node 3 2
gene 1 1 3 0.7697428137011016 1
gene 2 2 3 0.08310151079329708 0
genomeend

genomestart 459
node 1 1
node 2 1
node 3 2
gene 1 1 3 -0.36011116313571934 1
gene 2 2 3 0.11429153710442808 0
gene 3 3 3 0.6868498977318933 1
genomeend

genomestart 460
node 1 1
node 2 1
node 3 2
gene 1 1 3 -0.9368034547938238 0
gene 2 2 3 -0.5193389089325897 0
gene 3 3 3 -0.34136461345056446 1
genomeend

genomestart 461
node 1 1
node 2 1
node 3 2
node 8 3
gene 1 1 3 -0.5817138359778419 0
gene 2 2 3 0.2939946000143081 1
gene 3 3 3 0.8459569668609901 1
gene 12 2 8 -0.9767802624189866 0
gene 13 8 3 0.4139220212502479 1
genomeend

genomestart 462
node 1 1
node 2 1
node 3 2
node 60 3
gene 1 1 3 -0.3441889082680023 0
gene 2 2 3 -0.2901156190654639 0
gene 3 3 3 0.7143138767355341 0
gene 138 1 60 1.0 1
gene 139 60 3 -0.3441889082680023 1
genomeend

genomestart 463
node 1 1
node 2 1
node 3 2
node 8 3
gene 1 1 3 0.5381577500393662 1
gene 2 2 3 -0.5548117723790017 1
gene 3 3 3 -0.4565559355821287 1
gene 12 2 8 -0.9767802624189866 0
gene 13 8 3 0.4139220212502479 1
genomeend

genomestart 464
node 1 1
node 2 1
node 3 2
gene 1 1 3 0.4161339146804204 1
gene 2 2 3 0.24071026989814426 0
gene 3 3 3 0.3891599265726623 1
genomeend

genomestart 465
node 1 1
node 2 1
node 3 2
node 8 3
node 61 3
gene 1 1 3 -0.35085455953988953 1
gene 2 2 3 0.5090641657049517 0
gene 3 3 3 0.8459569668609901 1
gene 12 2 8 -0.9767802624189866 0
gene 13 8 3 0.4139220212502479 1
gene 140 8 8 -0.17320931891614777 1
gene 141 2 61 1.0 1
gene 142 61 8 -0.9767802624189866 1
genomeend

genomestart 466
node 1 1
node 2 1
node 3 2
node 8 3
gene 1 1 3 0.3695823325851284 1
gene 2 2 3 -0.8365701600949075 0
gene 3 3 3 0.8838932132814354 1
gene 12 2 8 0.5547315007179 0
gene 13 8 3 -0.5683368457445479 1
gene 143 3 8 0.7691015151015219 1
genomeend

genomestart 467
node 1 1
node 2 1
node 3 2
gene 1 1 3 0.023609580478043846 1
gene 2 2 3 0.3461048495560156 0
gene 3 3 3 -0.19599981971865998 0
genomeend

genomestart 468
node 1 1
node 2 1
node 3 2
gene 1 1 3 0.8335376187819712 1
gene 2 2 3 0.5799901393935581 1
gene 3 3 3 -0.5953832896773805 0
genomeend

genomestart 469
node 1 1
node 2 1
node 3 2
gene 1 1 3 0.33145216915925435 1
gene 2 2 3 -0.06334695534736368 0
gene 3 3 3 0.2383655178622749 1
genomeend

genomestart 470
node 1 1
node 2 1
node 3 2
node 16 3
node 62 3
gene 1 1 3 -0.5409744838089287 0
gene 2 2 3 0.8003945615008323 0
gene 28 2 16 -0.9185718048761787 1
gene 29 16 3 0.5496982597766527 0
gene 144 1 62 1.0 1
gene 145 62 3 -0.5409744838089287 1
genomeend

genomestart 471
node 1 1
node 2 1
node 3 2
gene 1 1 3 0.28135713564521025 1
gene 2 2 3 0.7401862708698703 0
gene 3 3 3 -0.3354542652845033 1
genomeend

genomestart 472
node 1 1
node 2 1
node 3 2
gene 1 1 3 -0.7439384652860628 0
gene 2 2 3 -0.6124778749394572 1
gene 3 3 3 0.16769277544252637 1
genomeend

genomestart 473
node 1 1
node 2 1
node 3 2
gene 1 1 3 -0.30775932199861256 0
gene 2 2 3 -0.2923359203446554 1
gene 3 3 3 -0.08120492398197987 1
genomeend

genomestart 474
node 1 1
node 2 1
node 3 2
gene 1 1 3 -0.2203030601641327 1
gene 2 2 3 -0.4243870507620662 1
gene 3 3 3 0.9580237450751199 1
genomeend

genomestart 475
node 1 1
node 2 1
node 3 2
node 63 3
gene 1 1 3 0.9698687848471953 0
gene 2 2 3 -0.8619796176423119 0
gene 3 3 3 -0.5532342425265885 1
gene 146 1 63 1.0 1
gene 147 63 3 0.9698687848471953 1
genomeend

genomestart 476
node 1 1
node 2 1
node 3 2
gene 1 1 3 -0.12404086469471731 1
gene 2 2 3 0.614627420435513 0
gene 3 3 3 0.03447264656204996 1
genomeend

genomestart 477
node 1 1
node 2 1
node 3 2
gene 1 1 3 0.8168786734055291 1
gene 2 2 3 0.3094596649505942 1
gene 3 3 3 0.5970543905902511 0
genomeend

genomestart 478
node 1 1
node 2 1
node 3 2
node 16 3
gene 1 1 3 -0.8985704860453898 0
gene 2 2 3 0.5080324367007142 1
gene 28 2 16 -0.9185718048761787 1
gene 29 16 3 0.5496982597766527 0
genomeend

genomestart 479
node 1 1
node 2 1
node 3 2
node 64 3
gene 1 1 3 0.14575117224943712 0
gene 2 2 3 -0.46381606120269503 0
gene 148 1 64 1.0 1
gene 149 64 3 0.14575117224943712 1
genomeend

genomestart 480
node 1 1
node 2 1
node 3 2
node 16 3
node 47 3
gene 1 1 3 0.062464106876979675 1
gene 2 2 3 0.6310053425033029 1
gene 28 2 16 -0.9185718048761787 1
gene 29 16 3 0.5496982597766527 0
gene 100 1 16 0.9275792139451645 1
gene 101 16 47 0.025264273290870887 1
gene 102 47 3 -0.4499008617233591 1
genomeend

genomestart 481
node 1 1
node 2 1
node 3 2
node 6 3
node 40 3
gene 1 1 3 -0.8846581064760423 1
gene 2 2 3 -0.9885592784447509 0
gene 3 3 3 -0.40450318590468415 0
gene 8 3 6 0.288600219510481 0
gene 9 6 3 0.06944139665544058 1
gene 42 2 6 -0.06467713005210984 0
gene 84 6 6 0.48095929737507537 1
gene 85 2 40 0.5450758988281199 1
gene 86 40 6 0.7295985557983042 1
genomeend

genomestart 482
node 1 1
node 2 1
node 3 2
gene 1 1 3 -0.12404086469471731 1
gene 2 2 3 -0.041099006871564536 0
gene 3 3 3 0.7517831107582429 0
genomeend

genomestart 483
node 1 1
node 2 1
node 3 2
gene 1 1 3 -0.2950147719239691 1
gene 2 2 3 0.614627420435513 1
gene 3 3 3 0.688359404454723 1
genomeend

genomestart 484
node 1 1
node 2 1
node 3 2
node 6 3
node 40 3
gene 1 1 3 0.6510171124820417 1
gene 2 2 3 -0.8460840316301436 1
gene 3 3 3 0.3886269369504952 1
gene 8 3 6 -0.5132327645615322 0
gene 9 6 3 -0.22904272962230865 0
gene 42 2 6 0.05438890898453452 0
gene 84 6 6 0.2821621715342144 0
gene 85 2 40 0.5975142150545862 0
gene 86 40 6 0.30004196925816995 0
genomeend

genomestart 485
node 1 1
node 2 1
node 3 2
gene 1 1 3 0.04718903992602952 1
gene 2 2 3 -0.9525447269337004 1
gene 3 3 3 0.19830594478656183 1
genomeend

genomestart 486
node 1 1
node 2 1
node 3 2
node 6 3
node 40 3
gene 1 1 3 0.7936265991667416 0
gene 2 2 3 0.9035156764656148 0
gene 3 3 3 -0.40450318590468415 0
gene 8 3 6 0.288600219510481 0
gene 9 6 3 0.06944139665544058 1
gene 42 2 6 -0.06467713005210984 0
gene 84 6 6 0.48095929737507537 1
gene 85 2 40 0.5450758988281199 1
gene 86 40 6 0.7295985557983042 1
genomeend

genomestart 487
node 1 1
node 2 1
node 3 2
node 65 3
gene 1 1 3 -0.10467929422350863 0
gene 2 2 3 0.4093994982033722 0
gene 3 3 3 -0.31087093535269916 0
gene 150 1 65 1.0 1
gene 151 65 3 -0.10467929422350863 1
genomeend

genomestart 488
node 1 1
node 2 1
node 3 2
gene 1 1 3 0.6019251299415087 1
gene 2 2 3 0.6493866388842998 1
gene 3 3 3 -0.9004708012243612 0
genomeend

genomestart 489
node 1 1
node 2 1
node 3 2
node 16 3
node 47 3
gene 1 1 3 0.32651856264139345 1
gene 2 2 3 -0.9342103024947992 0
gene 28 2 16 -0.9185718048761787 1
gene 29 16 3 0.5496982597766527 0
gene 100 1 16 0.9275792139451645 1
gene 101 16 47 0.025264273290870887 1
gene 102 47 3 -0.4499008617233591 1
gene 152 1 47 -0.7822319671450372 1
genomeend

genomestart 490
node 1 1
node 2 1
node 3 2
node 66 3
gene 1 1 3 0.995949186334659 0
gene 2 2 3 -0.8619796176423119 0
gene 3 3 3 -0.06820771269319759 0
gene 153 3 66 1.0 1
gene 154 66 3 -0.06820771269319759 1
genomeend

genomestart 491
node 1 1
node 2 1
node 3 2
node 42 3
gene 1 1 3 0.5984762036689382 0
gene 2 2 3 0.7430741282557067 0
gene 3 3 3 -0.5953832896773805 1
gene 89 1 42 -0.8128801241712162 1
gene 90 42 3 0.8718713137376125 1
genomeend

genomestart 492
node 1 1
node 2 1
node 3 2
node 42 3
gene 1 1 3 0.500456410519581 0
gene 2 2 3 0.6123371381000847 1
gene 3 3 3 -0.7515358740586169 1
gene 89 1 42 -0.8128801241712162 1
gene 90 42 3 0.8718713137376125 1
gene 155 3 42 0.4501060140951143 1
genomeend

genomestart 493
node 1 1
node 2 1
node 3 2
node 67 3
gene 1 1 3 0.462453206862509 0
gene 2 2 3 0.9751404723328604 0
gene 3 3 3 -0.4360905722274223 1
gene 156 1 67 1.0 1
gene 157 67 3 0.462453206862509 1
genomeend

genomestart 494
node 1 1
node 2 1
node 3 2
node 42 3
node 68 3
gene 1 1 3 -0.6067966176758811 0
gene 2 2 3 0.949723340490046 1
gene 3 3 3 -0.26697725595618216 0
gene 89 1 42 -0.8128801241712162 1
gene 90 42 3 0.8718713137376125 1
gene 158 3 68 1.0 1
gene 159 68 3 -0.26697725595618216 1
genomeend

genomestart 495
node 1 1
node 2 1
node 3 2
gene 1 1 3 -0.980549840053221 1
gene 2 2 3 -0.8374018462463406 0
gene 3 3 3 -0.27612842408007854 1
genomeend

genomestart 496
node 1 1
node 2 1
node 3 2
gene 1 1 3 -0.22427909861410744 0
gene 2 2 3 -0.9503023760958011 0
gene 3 3 3 -0.2441885247223068 1
genomeend

genomestart 497
node 1 1
node 2 1
node 3 2
gene 1 1 3 0.17963606660692355 1
gene 2 2 3 0.6147671943411348 1
gene 3 3 3 0.8573674338914459 1
genomeend

genomestart 498
node 1 1
node 2 1
node 3 2
gene 1 1 3 -0.7783216030708096 1
gene 2 2 3 -0.1853805521607248 0
gene 3 3 3 -0.8555693267531866 0
genomeend

genomestart 499
node 1 1
node 2 1
node 3 2
node 16 3
node 47 3
gene 1 1 3 -0.9526026556097379 1
gene 2 2 3 -0.739661133173137 0
gene 28 2 16 -0.9185718048761787 1
gene 29 16 3 0.5496982597766527 0
gene 100 1 16 0.9275792139451645 1
gene 101 16 47 0.025264273290870887 1
gene 102 47 3 -0.4499008617233591 1
genomeend

genomestart 500
node 1 1
node 2 1
node 3 2
node 16 3
node 47 3
gene 1 1 3 0.43288208466992517 1
gene 2 2 3 0.9968734784691163 0
gene 28 2 16 -0.9185718048761787 1
gene 29 16 3 0.5496982597766527 0
gene 100 1 16 0.9275792139451645 1
gene 101 16 47 0.025264273290870887 1
gene 102 47 3 -0.4499008617233591 1
genomeend

genomestart 501
node 1 1
node 2 1
node 3 2
node 20 3
node 50 3
gene 1 1 3 0.11397490099774532 1
gene 2 2 3 -0.46962074247821395 1
gene 36 2 20 -0.7628049519006728 0
gene 37 20 3 -0.931491459950236 0
gene 107 2 50 0.07428853371986355 0
gene 108 50 3 -0.7760123628693373 0
gene 137 20 50 0.5912840264378998 1
genomeend

genomestart 502
node 1 1
node 2 1
node 3 2
gene 1 1 3 0.016460242255710078 1
gene 2 2 3 -0.344778090498956 0
gene 3 3 3 -0.029450123492126945 0
genomeend

genomestart 503
node 1 1
node 2 1
node 3 2
node 14 3
node 48 3
gene 1 1 3 0.8846684196504194 1
gene 2 2 3 -0.05872104927260269 0
gene 24 2 14 0.9779779430828985 1
gene 25 14 3 0.8962199183117697 0
gene 103 14 48 0.9182709525245502 1
gene 104 48 3 -0.5984495855886451 1
genomeend

genomestart 504
node 1 1
node 2 1
node 3 2
node 69 3
gene 1 1 3 -0.1544086683964664 1
gene 2 2 3 -0.18814593485323994 0
gene 3 3 3 -0.22741913600362995 1
gene 160 2 69 0.2992072131532073 1
gene 161 69 3 0.23997934992046266 0
genomeend

genomestart 505
node 1 1
node 2 1
node 3 2
node 29 3
node 41 3
gene 1 1 3 -0.4674323353091874 1
gene 2 2 3 -0.8549670783839561 1
gene 3 3 3 0.38691464938557474 0
gene 57 2 29 -0.4493369068261277 0
gene 58 29 3 0.7549268479923714 1
gene 87 3 41 0.4133636175967521 0
gene 88 41 3 0.10682002949469471 0
gene 127 2 41 -0.9321226937145668 1
genomeend

genomestart 506
node 1 1
node 2 1
node 3 2
node 4 3
node 57 3
gene 1 1 3 -0.5301826655187629 1
gene 2 2 3 -0.7089752546922291 0
gene 4 1 4 0.622576043925456 0
gene 5 4 3 0.4689728573326627 0
gene 65 2 4 0.8538086483998437 0
gene 131 2 57 0.19534501921561565 1
gene 132 57 4 -0.9847042914214736 0
genomeend

genomestart 507
node 1 1
node 2 1
node 3 2
node 6 3
node 40 3
node 70 3
gene 1 1 3 0.986338278691594 1
gene 2 2 3 -0.20000423289828784 1
gene 3 3 3 -0.06199677373112433 0
gene 8 3 6 -0.5132327645615322 0
gene 9 6 3 -0.22904272962230865 0
gene 42 2 6 0.05438890898453452 0
gene 84 6 6 0.2821621715342144 0
gene 85 2 40 0.5975142150545862 0
gene 86 40 6 0.30004196925816995 0
gene 162 2 70 1.0 1
gene 163 70 40 0.23793462355589567 1
genomeend

genomestart 508
node 1 1
node 2 1
node 3 2
gene 1 1 3 -0.46470781424730834 1
gene 2 2 3 -0.03145443327050823 0
gene 3 3 3 -0.674396641469348 1
genomeend

genomestart 509
node 1 1
node 2 1
node 3 2
node 6 3
node 40 3
gene 1 1 3 -0.37106117051682797 1
gene 2 2 3 -0.24826666260299213 0
gene 3 3 3 -0.340945061528924 0
gene 8 3 6 -0.5132327645615322 0
gene 9 6 3 -0.22904272962230865 0
gene 42 2 6 0.05438890898453452 0
gene 84 6 6 0.2821621715342144 0
gene 85 2 40 0.5975142150545862 0
gene 86 40 6 0.30004196925816995 0
gene 164 3 40 0.8187838011405544 1
genomeend

genomestart 510
node 1 1
node 2 1
node 3 2
node 4 3
node 57 3
gene 1 1 3 0.45283787575851964 0
gene 2 2 3 0.24462219057141632 0
gene 4 1 4 0.622576043925456 0
gene 5 4 3 0.4689728573326627 0
gene 65 2 4 0.8538086483998437 0
gene 131 2 57 0.19534501921561565 1
gene 132 57 4 -0.9847042914214736 0
genomeend

genomestart 511
node 1 1
node 2 1
node 3 2
node 6 3
node 40 3
node 71 3
gene 1 1 3 0.6510171124820417 1
gene 2 2 3 -0.8460840316301436 0
gene 3 3 3 0.768141075854843 1
gene 8 3 6 -0.5132327645615322 0
gene 9 6 3 -0.22904272962230865 0
gene 42 2 6 0.05438890898453452 0
gene 84 6 6 0.2821621715342144 0
gene 85 2 40 0.5975142150545862 0
gene 86 40 6 0.30004196925816995 0
gene 165 2 71 0.7067787714126863 0
gene 166 71 3 -0.20238588787990275 0
genomeend

genomestart 512
node 1 1
node 2 1
node 3 2
node 6 3
node 40 3
gene 1 1 3 0.6510171124820417 0
gene 2 2 3 -0.3270168408976656 0
gene 3 3 3 0.811198339815634 1
gene 8 3 6 -0.5132327645615322 0
gene 9 6 3 -0.22904272962230865 0
gene 42 2 6 0.05438890898453452 0
gene 84 6 6 0.2821621715342144 0
gene 85 2 40 0.5975142150545862 0
gene 86 40 6 0.30004196925816995 0
gene 167 6 40 0.6638672499231452 0
genomeend

genomestart 513
node 1 1
node 2 1
node 3 2
gene 1 1 3 0.30292244670062096 1
gene 2 2 3 0.971394802936074 1
gene 3 3 3 -0.674396641469348 1
genomeend

genomestart 514
node 1 1
node 2 1
node 3 2
node 4 3
node 57 3
gene 1 1 3 -0.9301069501125392 1
gene 2 2 3 -0.7089752546922291 1
gene 4 1 4 0.622576043925456 0
gene 5 4 3 0.4689728573326627 0
gene 65 2 4 0.8538086483998437 0
gene 131 2 57 0.19534501921561565 1
gene 132 57 4 -0.9847042914214736 0
genomeend

genomestart 515
node 1 1
node 2 1
node 3 2
node 35 3
gene 1 1 3 0.4016699248874932 1
gene 2 2 3 0.4246075208673755 0
gene 3 3 3 0.7357217329937075 0
gene 72 3 35 -0.7993552916325982 0
gene 73 35 3 0.8004751738880034 0
genomeend

genomestart 516
node 1 1
node 2 1
node 3 2
node 35 3
gene 1 1 3 0.4016699248874932 1
gene 2 2 3 0.4246075208673755 0
gene 3 3 3 -0.58594947377311 0
gene 72 3 35 -0.7993552916325982 0
gene 73 35 3 0.8004751738880034 0
gene 91 1 35 0.9277540549499568 0
genomeend

genomestart 517
node 1 1
node 2 1
node 3 2
node 20 3
node 72 3
gene 1 1 3 -0.4780187933534925 0
gene 2 2 3 -0.6357851287510636 0
gene 36 2 20 -0.7628049519006728 0
gene 37 20 3 -0.931491459950236 0
gene 168 20 72 0.5044283206544756 1
gene 169 72 3 0.35937041928133107 0
genomeend

genomestart 518
node 1 1
node 2 1
node 3 2
node 20 3
gene 1 1 3 0.4288490329516941 1
gene 2 2 3 0.7253204124896885 1
gene 36 2 20 -0.7628049519006728 0
gene 37 20 3 -0.931491459950236 0
genomeend

genomestart 519
node 1 1
node 2 1
node 3 2
node 20 3
node 50 3
gene 1 1 3 0.22399126387559787 1
gene 2 2 3 0.884572991242381 1
gene 36 2 20 -0.7628049519006728 0
gene 37 20 3 -0.931491459950236 0
gene 107 2 50 0.07428853371986355 0
gene 108 50 3 -0.7760123628693373 0
gene 137 20 50 0.5912840264378998 1
genomeend

genomestart 520
node 1 1
node 2 1
node 3 2
node 14 3
node 48 3
gene 1 1 3 0.7621105400304654 0
gene 2 2 3 0.7535841459777655 0
gene 24 2 14 0.9779779430828985 1
gene 25 14 3 0.8962199183117697 0
gene 103 14 48 0.9182709525245502 1
gene 104 48 3 -0.5984495855886451 1
gene 170 3 14 -0.6659777141929009 1
genomeend

genomestart 521
node 1 1
node 2 1
node 3 2
gene 1 1 3 0.986338278691594 0
gene 2 2 3 -0.6931375624794944 0
gene 3 3 3 0.5470826131510681 1
genomeend

genomestart 522
node 1 1
node 2 1
node 3 2
node 29 3
node 41 3
node 73 3
gene 1 1 3 0.7701614641964434 0
gene 2 2 3 0.8662325795412353 0
gene 3 3 3 -0.18817130836536156 0
gene 57 2 29 -0.4493369068261277 0
gene 58 29 3 0.7549268479923714 1
gene 87 3 41 0.4133636175967521 0
gene 88 41 3 0.10682002949469471 0
gene 171 2 73 1.0 1
gene 172 73 29 0.6095932287626856 1
genomeend

genomestart 523
node 1 1
node 2 1
node 3 2
node 20 3
gene 1 1 3 0.9264459079213322 0
gene 2 2 3 -0.3557307418376273 0
gene 36 2 20 -0.7628049519006728 0
gene 37 20 3 -0.931491459950236 0
genomeend

genomestart 524
node 1 1
node 2 1
node 3 2
gene 1 1 3 0.6951662066626494 0
gene 2 2 3 0.11908694983182389 0
gene 3 3 3 -0.9354747307280589 1
genomeend

genomestart 525
node 1 1
node 2 1
node 3 2
node 4 3
gene 1 1 3 -0.8040304407886641 0
gene 2 2 3 0.21278166359708983 1
gene 4 1 4 0.622576043925456 0
gene 5 4 3 0.4689728573326627 0
gene 65 2 4 0.8538086483998437 0
genomeend

genomestart 526
node 1 1
node 2 1
node 3 2
node 4 3
gene 1 1 3 -0.5239192682453542 1
gene 2 2 3 0.5720940063527759 0
gene 4 1 4 -0.6105707499979557 1
gene 5 4 3 -0.5948437900844497 1
gene 65 2 4 0.3129329176717387 0
genomeend

genomestart 527
node 1 1
node 2 1
node 3 2
gene 1 1 3 0.7697428137011016 1
gene 2 2 3 0.08310151079329708 0
genomeend

genomestart 528
node 1 1
node 2 1
node 3 2
node 35 3
gene 1 1 3 0.4016699248874932 1
gene 2 2 3 0.4246075208673755 0
gene 3 3 3 -0.41770531638407704 0
gene 72 3 35 -0.7993552916325982 0
gene 73 35 3 0.8004751738880034 0
genomeend

genomestart 529
node 1 1
node 2 1
node 3 2
node 35 3
gene 1 1 3 -0.01815514374118854 1
gene 2 2 3 0.723122632786083 1
gene 3 3 3 -0.41770531638407704 0
gene 72 3 35 -0.7993552916325982 0
gene 73 35 3 0.8004751738880034 0
genomeend

genomestart 530
node 1 1
node 2 1
node 3 2
node 20 3
node 50 3
gene 1 1 3 0.33573336784623775 1
gene 2 2 3 -0.21023523687204515 1
gene 36 2 20 -0.07558144367682873 0
gene 37 20 3 -0.025378727950340796 0
gene 107 2 50 0.9570155616584499 0
gene 108 50 3 0.6357954698679419 1
gene 137 20 50 -0.9697346244844964 0
genomeend

genomestart 531
node 1 1
node 2 1
node 3 2
node 58 3
gene 1 1 3 0.8721191639366686 1
gene 2 2 3 0.819060787709004 0
gene 3 3 3 -0.0904407400275794 1
gene 133 2 58 -0.9753119254084925 1
gene 134 58 3 -0.10299384382720478 1
genomeend

genomestart 532
node 1 1
node 2 1
node 3 2
node 29 3
node 41 3
gene 1 1 3 0.47444161678140073 1
gene 2 2 3 -0.26129936800365827 1
gene 3 3 3 -0.18817130836536156 0
gene 57 2 29 -0.4493369068261277 0
gene 58 29 3 0.7549268479923714 1
gene 87 3 41 0.4133636175967521 0
gene 88 41 3 0.10682002949469471 0
genomeend

genomestart 533
node 1 1
node 2 1
node 3 2
node 20 3
node 50 3
gene 1 1 3 0.4691626139296903 1
gene 2 2 3 -0.9855617940510186 1
gene 36 2 20 -0.7628049519006728 0
gene 37 20 3 -0.931491459950236 0
gene 107 2 50 0.07428853371986355 0
gene 108 50 3 -0.7760123628693373 0
gene 137 20 50 0.5912840264378998 1
genomeend

genomestart 534
node 1 1
node 2 1
node 3 2
node 6 3
node 40 3
gene 1 1 3 -0.6796675062759389 1
gene 2 2 3 0.9492735160111215 1
gene 3 3 3 0.3886269369504952 1
gene 8 3 6 -0.5132327645615322 0
gene 9 6 3 -0.22904272962230865 0
gene 42 2 6 0.05438890898453452 0
gene 84 6 6 0.2821621715342144 0
gene 85 2 40 0.5975142150545862 0
gene 86 40 6 0.30004196925816995 0
genomeend

genomestart 535
node 1 1
node 2 1
node 3 2
node 20 3
node 50 3
gene 1 1 3 0.6094715716155508 1
gene 2 2 3 0.614477971743785 1
gene 36 2 20 -0.7628049519006728 0
gene 37 20 3 -0.931491459950236 0
gene 107 2 50 0.07428853371986355 0
gene 108 50 3 -0.7760123628693373 0
gene 137 20 50 0.5912840264378998 1
genomeend

genomestart 536
node 1 1
node 2 1
node 3 2
node 16 3
gene 1 1 3 0.6622579677994805 1
gene 2 2 3 -0.8729512540802891 0
gene 28 2 16 -0.9185718048761787 1
gene 29 16 3 0.5496982597766527 0
gene 173 3 16 -0.8734378861394592 1
genomeend

genomestart 537
node 1 1
node 2 1
node 3 2
node 6 3
node 44 3
gene 1 1 3 0.32762312717886966 1
gene 2 2 3 -0.43539491145117526 0
gene 3 3 3 0.5172583133271684 0
gene 8 3 6 -0.8021427494278076 0
gene 9 6 3 0.9694410834444698 1
gene 42 2 6 -0.9631395496933333 1
gene 94 3 44 -0.6452818403095008 1
gene 95 44 6 0.8489525826417047 1
gene 124 44 44 -0.7386676059869767 1
genomeend

genomestart 538
node 1 1
node 2 1
node 3 2
gene 1 1 3 0.986338278691594 1
gene 2 2 3 0.3645283098244352 0
gene 3 3 3 -0.9321380863343416 0
genomeend

genomestart 539
node 1 1
node 2 1
node 3 2
node 74 3
gene 1 1 3 -0.5930462895915091 0
gene 2 2 3 0.9112425781700935 0
gene 3 3 3 0.22145090911832976 1
gene 174 2 74 1.0 1
gene 175 74 3 0.9112425781700935 1
genomeend

genomestart 540
node 1 1
node 2 1
node 3 2
node 16 3
node 47 3
gene 1 1 3 0.8935478547796097 1
gene 2 2 3 -0.2652760975320996 1
gene 28 2 16 -0.9185718048761787 1
gene 29 16 3 0.5496982597766527 0
gene 100 1 16 0.9275792139451645 1
gene 101 16 47 0.025264273290870887 1
gene 102 47 3 -0.4499008617233591 1
genomeend

genomestart 541
node 1 1
node 2 1
node 3 2
node 6 3
node 44 3
node 75 3
gene 1 1 3 0.4305582123245846 1
gene 2 2 3 -0.4856263746071898 1
gene 3 3 3 0.03885395434640482 0
gene 8 3 6 0.9104718522177565 0
gene 9 6 3 0.07073370907297627 1
gene 42 2 6 0.047110380413585506 0
gene 94 3 44 -0.5112212196971679 1
gene 95 44 6 -0.6386520341289813 1
gene 124 44 44 -0.7386676059869767 1
gene 176 3 75 1.0 1
gene 177 75 6 0.9312045363569766 1
genomeend

genomestart 542
node 1 1
node 2 1
node 3 2
node 29 3
node 41 3
node 56 3
gene 1 1 3 0.40998555292904204 1
gene 2 2 3 0.2862939456232034 0
gene 3 3 3 -0.040787822706696786 0
gene 57 2 29 0.3657263984996524 0
gene 58 29 3 0.6774534478856199 1
gene 87 3 41 -0.5262382756188752 1
gene 88 41 3 0.8401944815089543 1
gene 129 2 56 0.8067631409672599 1
gene 130 56 3 0.3030431316958788 1
genomeend

genomestart 543
node 1 1
node 2 1
node 3 2
node 29 3
node 41 3
node 56 3
gene 1 1 3 -0.9805516509963248 1
gene 2 2 3 0.17672266010080406 0
gene 3 3 3 -0.21987610530183177 0
gene 57 2 29 -0.4493369068261277 0
gene 58 29 3 0.7549268479923714 1
gene 87 3 41 0.4133636175967521 0
gene 88 41 3 0.10682002949469471 0
gene 129 2 56 0.8067631409672599 1
gene 130 56 3 0.3030431316958788 1
genomeend

genomestart 544
node 1 1
node 2 1
node 3 2
gene 1 1 3 0.011495246181315255 1
gene 2 2 3 -0.5244435420077577 1
gene 3 3 3 0.3672673325712347 1
genomeend

genomestart 545
node 1 1
node 2 1
node 3 2
gene 1 1 3 -0.059665789282580595 1
gene 2 2 3 0.3363893745732156 0
gene 3 3 3 -0.46275252691396707 0
genomeend

genomestart 546
node 1 1
node 2 1
node 3 2
node 16 3
gene 1 1 3 -0.36058591633540216 1
gene 2 2 3 -0.7490989497904182 0
gene 28 2 16 -0.9185718048761787 1
gene 29 16 3 0.5496982597766527 0
gene 173 3 16 0.36169580110490585 1
genomeend

genomestart 547
node 1 1
node 2 1
node 3 2
node 76 3
gene 1 1 3 -0.3166273114008594 1
gene 2 2 3 0.8977951195740278 0
gene 3 3 3 0.4184125904221617 0
gene 178 2 76 0.35075506808644497 1
gene 179 76 3 0.6843958647707371 1
genomeend

genomestart 548
node 1 1
node 2 1
node 3 2
gene 1 1 3 0.9150058042294538 1
gene 2 2 3 0.529021420422833 0
gene 3 3 3 -0.4132109937937355 0
genomeend

genomestart 549
node 1 1
node 2 1
node 3 2
node 6 3
node 44 3
gene 1 1 3 -0.6024578174968725 1
gene 2 2 3 -0.3185723138951 0
gene 3 3 3 0.41450715937065374 1
gene 8 3 6 0.288600219510481 0
gene 9 6 3 0.06944139665544058 1
