genomestart 2403
node 1 1
node 2 1
node 3 2
node 23 3
node 50 3
node 79 3
node 92 3
gene 1 1 3 -0.2449952153225875 1
gene 2 2 3 0.9630918169756373 1
gene 3 3 3 -0.6019912172997459 1
gene 49 1 23 -0.4216839923443827 1
gene 50 23 3 0.975497815947201 1
gene 68 2 23 -0.6760908602393385 1
gene 77 3 23 -0.9546483488551858 0
gene 82 23 23 0.07636846124998531 1
gene 112 23 50 0.2727577537235252 1
gene 113 50 23 0.9892082031583819 1
gene 114 50 50 0.6411220677326477 1
gene 119 50 3 0.4945737433125441 1
gene 136 2 50 -0.8803292598760397 1
gene 145 3 50 -0.7362495194586246 1
gene 146 1 50 0.21857996171478422 1
gene 186 50 79 0.3323565278723707 1
gene 187 79 23 0.29552204641106716 1
gene 191 79 3 -0.679757622167883 1
gene 197 1 79 0.6825957175676097 1
gene 198 3 79 0.26113996890268976 1
gene 203 79 50 0.13794284786402422 1
gene 222 50 92 -0.9872946464883877 1
gene 223 92 3 -0.9536498242719452 1
gene 242 23 79 0.9826469224410962 1
gene 252 92 92 0.527203754273635 1
gene 253 3 92 -0.7612509795684899 1
genomeend
